%YAML:1.0
---
opencv_ml_svm:
   format: 3
   svmType: C_SVC
   kernel:
      type: LINEAR
   C: 1.
   term_criteria: { epsilon:1.1920928955078125e-07, iterations:1000 }
   var_count: 128
   class_count: 21
   class_labels: !!opencv-matrix
      rows: 21
      cols: 1
      dt: i
      data: [ 0, 1, 2, 3, 4, 5, 6, 7, 8, 9, 10, 11, 12, 13, 14, 15, 16,
          17, 18, 19, 20 ]
   sv_total: 210
   support_vectors:
      - [ 7.87952468e-02, 9.15012062e-02, 1.81173891e-01, 8.38976800e-02,
          2.86392450e-01, -2.74727941e-01, -5.57851903e-02,
          6.37836307e-02, -9.90568195e-04, 7.51487911e-02,
          -3.76954049e-01, -6.23937212e-02, -6.54748117e-04,
          -4.70146909e-02, 4.08817559e-01, 1.24392770e-01,
          -5.00341803e-02, -1.92081809e-01, 7.89789706e-02,
          -9.68483184e-03, 1.85064360e-01, -7.02286661e-02,
          3.22070718e-01, 1.49501935e-01, -9.29511636e-02,
          -5.91298759e-01, -1.85955074e-02, -7.37636955e-03,
          -1.16441153e-01, 1.06309786e-01, -3.71109456e-01,
          -3.30092490e-01, -1.46259576e-01, 1.60348505e-01,
          1.43950090e-01, 9.31865200e-02, 7.98257217e-02,
          -1.09824948e-01, 2.53619432e-01, 1.57917410e-01,
          3.96955311e-02, -1.44560993e-01, -1.50406718e-01,
          -1.26752958e-01, -2.85317063e-01, 3.13145310e-01,
          -2.05599904e-01, -3.96612622e-02, -1.24671519e-01,
          -5.87409064e-02, -2.29478404e-01, 3.41945708e-01,
          2.11085945e-01, 1.37417912e-01, -1.65383995e-01,
          -6.39604107e-02, 2.95181051e-02, -1.28172502e-01,
          1.20200604e-01, 2.53925681e-01, -1.42125366e-02,
          -2.39273235e-01, -2.24842772e-01, -1.71075001e-01,
          2.27007404e-01, -2.00695962e-01, 4.88963574e-01,
          -1.46261051e-01, -3.26676071e-01, 2.93104261e-01,
          4.83339541e-02, 2.40195245e-01, 4.90263626e-02, 5.86423278e-02,
          -5.74683324e-02, 6.96823075e-02, 2.42321759e-01,
          1.08342789e-01, -3.21931958e-01, -1.49336725e-01,
          -2.91232001e-02, 2.55849391e-01, 2.68902659e-01,
          -9.93048889e-04, -7.35920342e-03, -3.53183568e-01,
          -9.48459283e-03, -5.31028152e-01, -3.65226477e-01,
          6.99452758e-02, 6.56465590e-02, 1.25277281e-01,
          -2.83122361e-01, -2.72113439e-02, -3.70837867e-01,
          -3.20359588e-01, -2.62516662e-02, -6.57615252e-03,
          2.27077194e-02, 2.72709817e-01, -1.60743490e-01,
          -1.44677475e-01, -3.54616135e-01, 2.82768905e-01,
          3.90900858e-02, 1.29420236e-01, -1.39760762e-01,
          -5.37903719e-02, 4.20005387e-03, 2.35989287e-01,
          -6.04723506e-02, -3.23347822e-02, 1.55538008e-01,
          -1.56651437e-01, 1.69891983e-01, -2.77552336e-01,
          1.62541360e-01, -2.73753088e-02, -8.52955282e-02,
          9.10258386e-03, 3.80814016e-01, -3.60465616e-01,
          -2.67405272e-01, -2.33386129e-01, -1.08208165e-01,
          3.62609103e-02, -9.77559760e-03, 1.22519294e-02 ]
      - [ 1.09339029e-01, 1.67650133e-01, 1.47388145e-01,
          -6.33839592e-02, -1.08723558e-01, -1.21320598e-01,
          -8.50837007e-02, 2.77241141e-01, -1.26261227e-02,
          3.97572620e-03, -2.10325971e-01, 3.61544862e-02,
          1.55971691e-01, 2.99885496e-02, 1.19957417e-01, 8.87135416e-02,
          2.03056306e-01, -1.73238723e-03, 9.14773419e-02,
          2.62474000e-01, 4.84253019e-02, 7.69475549e-02, 8.01274106e-02,
          1.88909471e-02, -2.47629568e-01, -2.76038259e-01,
          -1.96964219e-01, 1.25038624e-01, -2.63701260e-01,
          9.83298942e-02, -3.73893589e-01, -2.68317461e-01,
          -3.21824789e-01, 1.35485172e-01, 1.83891267e-01,
          5.39510418e-03, 7.37550715e-03, 2.38529723e-02, 1.81139886e-01,
          2.89119214e-01, -1.65709153e-01, 2.62260833e-03,
          -2.13820562e-02, -5.00253066e-02, -3.89960036e-02,
          7.35665113e-02, 2.35258624e-01, 4.14593443e-02,
          -2.18606833e-02, -5.15597351e-02, -1.22644499e-01,
          4.92761508e-02, 3.61624397e-02, -1.69173703e-02,
          -1.74450427e-01, -3.44239473e-01, 1.68800458e-01,
          2.53136754e-01, -2.01678872e-02, 1.29942581e-01,
          4.91094775e-02, -2.75106113e-02, -1.35994017e-01,
          -3.56071368e-02, 2.51845539e-01, -2.48537481e-01,
          2.18073666e-01, -1.20437160e-01, -4.15619612e-02,
          -2.11216807e-02, 4.71849181e-02, 2.15224683e-01,
          2.78637521e-02, 1.54684305e-01, -3.13196257e-02,
          8.70840922e-02, 1.40559912e-01, 8.36252980e-03, 1.36752814e-01,
          -1.26625761e-01, -1.81589033e-02, -1.51480183e-01,
          2.19062120e-01, -9.06787440e-02, -1.31651178e-01,
          -3.49985994e-02, 2.05388069e-01, -3.31741065e-01,
          -2.88727105e-01, 1.05233073e-01, 5.42548187e-02,
          1.57854632e-01, -2.73984730e-01, -6.29477054e-02,
          -1.46406308e-01, -1.45399734e-01, 5.48061058e-02,
          -4.05769683e-02, 5.58649339e-02, 1.96956545e-01,
          1.18604094e-01, 1.99049801e-01, -2.79178232e-01,
          1.47959560e-01, -1.27815276e-01, 3.01187690e-02,
          -2.02239558e-01, -1.47371471e-01, -3.85393240e-02,
          3.52515397e-03, 1.08959556e-01, -1.56673685e-01,
          6.48645610e-02, 9.64348763e-02, -3.61152478e-02,
          -1.38307527e-01, 1.86279863e-02, 5.72147369e-02,
          9.30009708e-02, 7.00668544e-02, -7.34029189e-02,
          6.06387705e-02, -5.20261765e-01, -2.43487269e-01,
          -2.34552220e-01, 7.20001757e-02, -7.13335946e-02,
          -3.72005522e-01 ]
      - [ 8.36163461e-02, 2.73135632e-01, 8.98171142e-02, 2.18845770e-01,
          -3.52894552e-02, -2.70284742e-01, -7.78227374e-02,
          3.29810157e-02, -1.30771071e-01, 2.84897625e-01,
          -3.36101204e-01, 8.99622813e-02, -4.66601923e-02,
          6.62600920e-02, 2.88193971e-02, -4.01623428e-01,
          -1.35155484e-01, -6.72389418e-02, 3.48767370e-01,
          2.76632905e-01, 2.31731698e-01, 6.94609433e-03, 1.15973227e-01,
          1.69145837e-01, -2.24445179e-01, -2.21968934e-01,
          -3.81177306e-01, -8.20975006e-02, -1.06347613e-01,
          -9.62566659e-02, -2.32274890e-01, -1.67416230e-01,
          -4.85314161e-01, 2.34199464e-01, 8.85607973e-02,
          1.08019905e-02, -8.01404417e-02, -2.57570148e-01,
          2.53815949e-01, -1.29420176e-01, 1.29307330e-01,
          3.01006168e-01, -3.36953700e-02, 8.34848955e-02,
          -2.24766776e-01, 2.72080511e-01, 9.00793970e-02,
          9.16163251e-02, -2.49299511e-01, 1.29523844e-01,
          -3.78006548e-02, 3.87454003e-01, 9.01673138e-02,
          -6.77113906e-02, -2.22918332e-01, -1.88174441e-01,
          4.02846225e-02, -1.10654578e-01, -4.30952869e-02,
          6.57167062e-02, 1.95553392e-01, -2.85127223e-01,
          -1.08998902e-01, -4.07134980e-01, 5.69653660e-02,
          -4.02542911e-02, 3.02165240e-01, -6.64483085e-02,
          -2.19917402e-01, 2.99917579e-01, 6.04613088e-02,
          1.63991377e-01, 1.97012514e-01, 2.17002425e-02,
          -2.18638867e-01, -9.37984325e-03, 3.02367568e-01,
          4.26851101e-02, -1.92556396e-01, -1.22673802e-01,
          8.49081576e-02, -6.75066561e-02, 2.39128739e-01,
          -5.25198739e-05, -2.24440277e-01, -9.50003341e-02,
          -1.34527087e-02, -2.95991480e-01, 7.28388724e-04,
          1.23616517e-01, 3.18735442e-03, 2.00097337e-01,
          -2.76850790e-01, 3.64064962e-01, 5.78213371e-02,
          -4.39681172e-01, 3.24303240e-01, 9.11258459e-02,
          1.63775086e-02, 7.80758932e-02, 9.92329344e-02, 3.75625584e-03,
          -1.84303209e-01, 1.23339050e-01, 3.48315649e-02,
          2.16935687e-02, 1.05304331e-01, 1.64038852e-01,
          -1.53589800e-01, 6.23379201e-02, 2.03319322e-02,
          1.08461417e-02, 1.44615605e-01, 1.32454291e-01, 1.07135102e-01,
          -1.26354262e-01, -8.31128135e-02, -1.53576985e-01,
          1.50546193e-01, 4.43795472e-02, -2.03962222e-01,
          -1.11047342e-01, -5.22676826e-01, -4.06441912e-02,
          4.67394516e-02, -1.65652975e-01, 1.52444467e-02,
          -5.28539270e-02 ]
      - [ -1.34904802e-01, -7.83401132e-02, 3.46014380e-01,
          7.19792992e-02, -1.75096653e-03, 2.45394073e-02,
          6.33920217e-03, 2.23245800e-01, 1.96534134e-02, 1.33534521e-01,
          -1.44775555e-01, -2.48893842e-01, 1.03698738e-01,
          -1.08939193e-01, -1.56990767e-01, 1.61548316e-01,
          1.54185072e-01, -6.39849529e-02, -1.22150637e-01,
          5.54401912e-02, 3.97439361e-01, 2.04302818e-01, 1.17888808e-01,
          3.03709358e-01, -2.53731161e-01, -6.53851330e-01,
          6.11613952e-02, -1.66087210e-01, -7.74042755e-02,
          -4.38166894e-02, 3.05281263e-02, -4.38062727e-01,
          1.23717375e-01, 5.40750138e-02, 3.40919085e-02,
          -2.85369735e-02, 3.88021506e-02, -3.57425541e-01,
          -1.43117130e-01, 6.15644036e-03, -1.62747949e-01,
          -7.55594075e-02, 1.89446032e-01, -9.24068540e-02,
          -1.59315154e-01, 2.62729108e-01, 4.74195451e-01,
          -2.88707074e-02, -2.60388404e-01, 4.04853038e-02,
          -5.03726602e-01, 2.09344909e-01, 1.49810597e-01,
          2.85287052e-01, -2.00712100e-01, -6.98025599e-02,
          -1.27035812e-01, 3.21657211e-02, -1.05105281e-01,
          2.39346221e-01, 5.26964776e-02, -1.99601445e-02,
          1.14188850e-01, 3.18486452e-01, 3.49628508e-01,
          -1.07767783e-01, 3.27047437e-01, 3.11351448e-01,
          -1.51186064e-01, 5.77411726e-02, -1.32575423e-01,
          2.88607836e-01, -4.61419299e-02, -1.86946526e-01,
          -5.24585284e-02, 1.05934456e-01, 1.12062119e-01,
          -2.25315411e-02, 8.39494541e-02, -4.50728126e-02,
          -1.71475708e-01, -8.90917629e-02, 3.09487492e-01,
          -2.37891022e-02, 1.48506045e-01, -4.08160351e-02,
          -1.41524868e-02, -3.53247195e-01, -1.35564730e-01,
          -1.04118861e-01, 1.04440585e-01, 2.83007294e-01,
          -1.00349940e-01, 2.00261876e-01, 8.25784951e-02,
          -1.34448737e-01, -3.19425792e-01, -7.07576657e-03,
          2.87630290e-01, 2.19418481e-01, 2.80740708e-01, 3.76151621e-01,
          -1.15630031e-03, 3.43279034e-01, -8.83203670e-02,
          9.75801796e-02, -5.35437047e-01, 9.21386480e-02,
          -3.10733050e-01, -3.28264505e-01, -5.44821173e-02,
          -9.23211947e-02, 2.24213451e-01, 2.35453457e-01,
          -4.13552195e-01, -1.57832891e-01, 6.62965924e-02,
          9.24181640e-02, -2.42971510e-01, 1.79509804e-01,
          -7.92925339e-03, -9.10418406e-02, -2.94352055e-01,
          -1.90787271e-01, -5.45886904e-02, -4.41309288e-02,
          1.59048468e-01, -7.42849633e-02 ]
      - [ -1.69255167e-01, 3.47110033e-02, 2.40167409e-01,
          2.93551814e-02, 2.79527511e-02, -1.98086992e-01,
          9.01253447e-02, -8.00125822e-02, -6.09559901e-02,
          2.79601783e-01, 4.31033969e-02, -2.20346134e-02,
          1.16890976e-02, -1.67708814e-01, 2.01170027e-01,
          1.09672016e-02, 2.80957937e-01, 7.33806565e-02, 3.82985137e-02,
          -2.66714208e-02, 1.27874687e-01, -2.52506018e-01,
          2.05782235e-01, 1.74464107e-01, -7.34938532e-02,
          -5.17714798e-01, 2.74976671e-01, -1.52203590e-01,
          -4.14046884e-01, -9.36057121e-02, -2.34006837e-01,
          -1.75411925e-01, 1.95417330e-02, 3.04073803e-02,
          2.12954298e-01, 2.10313126e-01, -4.87920195e-02,
          1.91402480e-01, 2.65554152e-02, 2.76914537e-01, 7.41462782e-02,
          -4.36238833e-02, 4.86704148e-02, 2.27323160e-01,
          -4.10825424e-02, -5.43228239e-02, 8.07305053e-02,
          3.45933139e-02, 1.20338880e-01, -1.00487061e-02,
          -1.28233284e-01, 2.55933791e-01, 1.68587387e-01,
          -2.13028938e-02, 7.23001957e-02, -5.37745617e-02,
          -1.60314545e-01, 9.94907022e-02, -1.27177730e-01,
          -5.43835908e-02, 1.77740604e-01, -1.57933727e-01,
          -3.86998981e-01, -2.83940196e-01, 2.78578281e-01,
          -4.59324270e-02, 8.26381668e-02, 1.81306481e-01,
          -2.76393086e-01, 2.58746237e-01, -2.21564949e-01,
          7.84559846e-02, 1.71939537e-01, -3.49563479e-01,
          4.65367101e-02, -1.10725485e-01, 1.07914254e-01,
          -5.31348661e-02, -4.43128437e-01, -5.24113402e-02,
          -9.16696936e-02, 1.92416221e-01, 2.34927937e-01,
          9.74114835e-02, -6.27904758e-02, 4.48074400e-01,
          1.21344551e-01, -2.82389104e-01, -2.12609351e-01,
          9.30421203e-02, -7.12300912e-02, 2.53684998e-01,
          8.87243971e-02, 9.06459540e-02, 6.99067116e-02,
          -2.30857760e-01, -2.69347951e-02, -9.77397263e-02,
          -1.75634995e-02, 4.66071308e-01, 1.21755647e-02,
          2.58403391e-01, -1.76454097e-01, -4.38754410e-02,
          -3.85352671e-02, -1.58841848e-01, -1.16529703e-01,
          3.04706901e-01, 8.57133120e-02, -5.74520230e-02,
          -2.48932451e-01, 1.56847201e-02, 1.22101575e-01,
          5.69962971e-02, -4.16293144e-01, -3.34061868e-02,
          -2.48850379e-02, -1.04998648e-02, 1.07012317e-02,
          3.84065732e-02, -2.96407882e-02, -2.37913206e-01,
          -2.14916691e-01, -3.91882271e-01, 2.12641321e-02,
          2.50297207e-02, 9.77295786e-02, 1.44791991e-01 ]
      - [ -1.61200464e-01, 1.52047589e-01, 1.27657875e-01,
          -1.99949503e-01, -1.16045170e-01, -2.34232172e-01,
          -3.86450253e-02, -7.30251595e-02, -7.27713257e-02,
          1.15172081e-01, 5.23990169e-02, 3.17845821e-01, 2.69444019e-01,
          -4.57007170e-01, 3.41161013e-01, 3.56398702e-01,
          3.04776609e-01, -8.74049496e-03, 2.63939887e-01,
          6.19037561e-02, 3.93053412e-01, -3.30766082e-01,
          2.83711463e-01, 3.31440896e-01, -1.87189117e-01,
          -3.57309550e-01, 2.62581110e-01, -5.12054749e-02,
          -2.79041916e-01, 3.06686442e-02, -4.49713498e-01,
          -2.01146469e-01, 1.66254621e-02, 1.11997269e-01,
          1.67748377e-01, 1.37011230e-01, 2.09831893e-01,
          -1.63942471e-01, -8.90801137e-04, 7.99085125e-02,
          -8.86055529e-02, 2.01727688e-01, -1.63799822e-01,
          1.03565075e-01, -1.63243324e-01, 1.38412729e-01,
          1.41531914e-01, -1.62697181e-01, 1.80135116e-01,
          9.74303037e-02, -2.29957506e-01, -8.00937414e-02,
          6.42799735e-02, 1.59830958e-01, 5.42501584e-02, 1.13621175e-01,
          -6.40885532e-02, 2.82355305e-02, 6.99142441e-02,
          2.18715176e-01, -3.01823597e-02, 2.31293705e-03,
          3.74374585e-03, -2.43506536e-01, 2.89444983e-01,
          -7.20527619e-02, 1.93811849e-01, 1.32679984e-01,
          -8.97216201e-02, 3.16037089e-01, -6.62859678e-02,
          4.81425434e-01, -4.99491580e-02, -3.36492388e-03,
          7.41783530e-02, -1.54041037e-01, -9.93562490e-02,
          -7.23946840e-02, -2.98693150e-01, -3.34180743e-01,
          -3.26806754e-01, -7.72094652e-02, 1.50662372e-02,
          -7.08171204e-02, 2.23256901e-01, 2.07984984e-01,
          1.02696314e-01, -2.46897489e-01, -3.93008858e-01,
          9.65260193e-02, 1.40529856e-01, 2.02179536e-01, 1.36178181e-01,
          -2.31180917e-02, -1.75815657e-01, -4.81871739e-02,
          9.76042971e-02, -8.73384923e-02, 9.69747640e-03,
          2.79644787e-01, 9.24593657e-02, 1.35036305e-01, 1.57122880e-01,
          -3.37726101e-02, 2.11517159e-02, -1.49799645e-01,
          -4.24306035e-01, 2.32311577e-01, -9.94553789e-02,
          1.02309480e-01, -4.57003005e-02, -1.81721926e-01,
          1.45958692e-01, 4.50818464e-02, -2.12556988e-01,
          -1.01931747e-02, 6.67563975e-02, 1.08762734e-01,
          1.72591373e-01, 1.49672493e-01, 1.44753218e-01,
          -2.97791302e-01, -4.40406390e-02, -3.49041939e-01,
          -4.77949902e-02, -1.38792634e-01, 5.31308763e-02,
          -8.77948999e-02 ]
      - [ -1.46829695e-01, 3.20672512e-01, -2.92500764e-01,
          3.25290352e-01, 1.86484247e-01, -2.05993071e-01,
          -1.31606087e-01, 3.86221111e-01, -1.14622742e-01,
          -1.42203579e-02, -3.66878480e-01, -9.65698995e-03,
          3.02972227e-01, -6.47842586e-02, 1.75986961e-01,
          -4.02738713e-02, -3.15963328e-02, 1.78742155e-01,
          -7.63804987e-02, 1.37346029e-01, -3.38176824e-03,
          1.75371647e-01, 2.98488766e-01, 1.28538668e-01,
          -1.74938396e-01, -2.06925988e-01, -8.29363689e-02,
          8.29542950e-02, -3.94424260e-01, -3.16009641e-01,
          -3.71479303e-01, -6.44696951e-02, -3.06404326e-02,
          2.20312312e-01, 1.41158149e-01, -9.11317617e-02,
          5.07809222e-01, -9.60312560e-02, 8.13935474e-02,
          1.89308271e-01, -2.12804917e-02, -2.43424010e-02,
          -3.53824086e-02, -3.44483815e-02, -1.23140156e-01,
          1.09418705e-01, 2.10652590e-01, -1.27936631e-01,
          2.28253931e-01, -1.64071918e-02, -2.40466535e-01,
          2.55180001e-01, -1.93464085e-01, 6.77847117e-02,
          -1.13312215e-01, 2.89287925e-01, -1.14536293e-01,
          -1.02086268e-01, 2.08140649e-02, 1.73822828e-02,
          -9.46862996e-02, -6.13107271e-02, -3.31320316e-01,
          -1.83208868e-01, 1.29755130e-02, -1.38031900e-01,
          8.96095783e-02, 1.87974274e-02, -2.30101105e-02,
          -1.68822825e-01, 1.00327469e-01, 1.38512328e-01,
          1.72678277e-01, 1.76879004e-01, 2.73077309e-01,
          -1.14238031e-01, 7.15760738e-02, 3.60789485e-02,
          -3.05218577e-01, -1.73154786e-01, 6.98177442e-02,
          -1.84431653e-02, 1.09085210e-01, 2.44835287e-01,
          9.23359543e-02, 2.98247933e-01, 1.12350158e-01,
          -1.28885224e-01, -2.20787749e-01, 3.41392040e-01,
          -1.71992838e-01, -6.32484853e-02, -1.98165879e-01,
          -3.20567280e-01, -3.06479275e-01, -5.66836111e-02,
          1.51076362e-01, -2.33189031e-01, 1.29386500e-01,
          2.64678657e-01, -3.60083729e-01, 1.64509818e-01,
          -2.59084612e-01, -7.40101561e-02, 4.69806865e-02,
          -2.44961649e-01, 9.40422416e-02, -2.64179092e-02,
          2.62984671e-02, 1.88611954e-01, -3.40553820e-02,
          3.13165523e-02, -7.65105784e-02, 7.70452842e-02,
          3.14236730e-02, -2.19047386e-02, -7.65183046e-02,
          -8.38553831e-02, 1.01935513e-01, -5.51272891e-02,
          5.03219552e-02, -3.86409372e-01, -3.66479754e-01,
          4.70733419e-02, -3.58767807e-01, -4.95159812e-03,
          1.35276169e-02, 2.06305474e-01 ]
      - [ 3.44343595e-02, 1.53160086e-02, 4.03114259e-02, 3.41301918e-01,
          -5.54931089e-02, -7.25899100e-01, -8.58607963e-02,
          -1.11067981e-01, -1.87050343e-01, 5.02814949e-02,
          -3.98068726e-01, 3.97352368e-01, 2.68106937e-01,
          5.65848686e-02, 2.40825459e-01, -3.95573705e-01,
          2.49276295e-01, 3.54955405e-01, 2.88372748e-02, 1.49772897e-01,
          -3.52318622e-02, -3.65190893e-01, 1.93426758e-01,
          9.14305076e-02, 6.95352331e-02, -2.02013746e-01,
          -1.29941255e-01, 1.32830679e-01, -7.53156468e-02,
          -2.90905148e-01, -2.07034305e-01, 1.48131754e-02,
          -6.11354299e-02, -6.86655268e-02, -8.46292675e-02,
          1.54028330e-02, 1.98658600e-01, 1.18368514e-01,
          -4.43714231e-01, 2.83192396e-01, 3.98201123e-02,
          5.11025786e-01, 3.50415707e-01, 2.11683944e-01,
          -2.48442143e-01, 2.58247256e-01, -4.39653639e-03,
          1.99250251e-01, -3.50040406e-01, 5.11661544e-02,
          1.25155747e-01, -1.73499510e-02, -1.55145660e-01,
          9.24426019e-02, 3.49679738e-01, 4.27200645e-02,
          -5.82981966e-02, 4.23727781e-01, 2.18439117e-01,
          -1.76196203e-01, 2.58499086e-01, -1.01269074e-01,
          -3.54327887e-01, -8.07799771e-02, -2.53256201e-03,
          1.25200167e-01, -1.97886363e-01, 1.64089814e-01,
          -9.58087295e-02, -7.10438192e-02, -2.02093929e-01,
          1.07232749e-01, 2.81600535e-01, 1.28854558e-01,
          -2.54142016e-01, -1.66904330e-02, 1.70724064e-01,
          -2.17980802e-01, -2.95031399e-01, -4.68927979e-01,
          8.01132992e-03, 2.11170688e-01, -1.60260171e-01,
          1.16864301e-01, -3.12839210e-01, -7.14679509e-02,
          2.87676603e-01, -2.71243960e-01, -1.85825527e-01,
          2.67441869e-01, -2.56497085e-01, 4.11868393e-02,
          8.22625533e-02, -1.82050899e-01, -2.27516234e-01,
          -3.35208744e-01, 4.98500496e-01, -4.67567593e-02,
          1.59231216e-01, 1.18601486e-01, -1.80291966e-01,
          1.91591665e-01, -3.56593076e-03, -2.10662901e-01,
          1.09316602e-01, -3.54200810e-01, 8.12746733e-02,
          2.75952183e-03, 3.09864849e-01, -4.47319858e-02,
          -7.75126442e-02, 4.18732874e-02, 1.81615785e-01,
          5.06204702e-02, -1.52577326e-01, 1.25339597e-01,
          -1.57187685e-01, -7.24167190e-03, 3.53435785e-01,
          8.22166651e-02, -2.25514561e-01, -7.34858811e-02,
          -3.87509704e-01, -2.36102805e-01, 6.37559444e-02,
          2.54637122e-01, 8.83124545e-02, 2.31653284e-02 ]
      - [ -2.61535764e-01, 3.15661699e-01, -6.89514205e-02,
          -7.89626464e-02, 3.91790010e-02, -2.13972237e-02,
          1.26924723e-01, 2.26100668e-01, -2.05543503e-01,
          2.30515584e-01, 1.36834145e-01, 1.37673825e-01, 1.32039632e-03,
          -2.84619421e-01, 2.05055133e-01, 3.03556591e-01,
          1.46172732e-01, -1.48797333e-01, 1.58121690e-01,
          -5.66135421e-02, -7.30882883e-02, -7.40841171e-03,
          2.98697412e-01, -8.88149962e-02, -3.49554062e-01,
          -3.87323171e-01, 2.99408436e-01, 2.01801181e-01,
          -3.48859251e-01, 2.21699908e-01, -5.16073585e-01,
          -2.01548606e-01, 7.83216953e-03, -9.03467759e-02,
          6.48521423e-01, -1.93919793e-01, 9.49968100e-02,
          -2.35940784e-01, 2.54524201e-01, -2.31885407e-02,
          -4.98964071e-01, -1.37771755e-01, 1.98072079e-03,
          9.71599817e-02, 1.86427355e-01, -3.48700225e-01,
          7.46245682e-02, -2.29543701e-01, 1.87111527e-01,
          1.89789325e-01, -2.40688503e-01, 2.98260212e-01,
          1.80127889e-01, 1.33292258e-01, -3.73193234e-01,
          5.69997728e-02, -5.77344485e-02, 1.31904677e-01,
          -4.13367480e-01, 7.10245892e-02, -1.54644251e-01,
          9.13190320e-02, 2.15973005e-01, -2.12074369e-01,
          1.39194816e-01, 6.06036186e-02, 1.62380457e-01, 4.20353711e-01,
          1.22357763e-01, 1.76137716e-01, 9.40922201e-02, 1.98138326e-01,
          -1.91312492e-01, 1.98852822e-01, 8.82635359e-03,
          1.04861364e-01, 9.54608247e-02, -1.68611065e-01,
          4.17185761e-02, -2.55354941e-01, 2.15247631e-01,
          3.37979019e-01, 2.14214697e-02, 3.11094802e-02, 2.46236250e-01,
          -2.11427331e-01, 1.83787078e-01, -2.96407610e-01,
          -5.77652633e-01, 1.05592400e-01, -3.23286742e-01,
          8.47574025e-02, 2.90473066e-02, 1.51897803e-01,
          -4.65930104e-01, 7.87697285e-02, -3.96815240e-01,
          1.26793832e-01, -1.76452726e-01, 3.00078988e-01,
          -1.66394457e-01, -1.48302227e-01, 1.18419372e-01,
          1.43728822e-01, -6.39432892e-02, -2.41298322e-02,
          -3.13748777e-01, 7.85419997e-03, -2.65203834e-01,
          1.28296256e-01, 2.12037027e-01, 2.44990196e-02, 1.54570863e-01,
          2.12633446e-01, -9.91780162e-02, 3.77555899e-02,
          1.52322590e-01, 2.33866423e-02, 9.55095887e-02, 3.12749565e-01,
          2.40272015e-01, -2.41795793e-01, -8.66267979e-02,
          1.78877383e-01, -3.52921267e-03, 6.44414499e-02,
          -1.37339830e-02, -4.06402983e-02 ]
      - [ -2.10022390e-01, -4.13084954e-01, -1.21194851e-02,
          2.43725985e-01, 2.16974676e-01, -2.16145322e-01,
          -1.14568882e-02, 4.63380247e-01, 2.54163474e-01,
          -1.13466136e-01, -4.36274827e-01, 7.47842416e-02,
          1.41668066e-01, 7.29772076e-02, -6.62403628e-02,
          -2.03803092e-01, 2.10463852e-01, 1.14972712e-02,
          7.97906518e-02, 7.50402063e-02, 3.83382261e-01,
          -3.08382601e-01, 2.03790441e-01, 7.29926908e-03,
          -7.58988932e-02, -3.52891624e-01, 2.47745663e-01,
          -2.01024994e-01, 6.53474545e-03, -1.05134219e-01,
          -1.29836217e-01, -1.16195090e-01, 1.62104398e-01,
          -1.76798791e-01, -2.45176539e-01, -2.42969975e-01,
          6.21046685e-02, -2.27968365e-01, -1.26375630e-01,
          -1.47852674e-01, 4.91881594e-02, 5.29345199e-02,
          5.76577932e-02, 1.56885702e-02, -1.40389353e-01,
          1.34687483e-01, -8.39378834e-02, -1.92182004e-01,
          -5.86146936e-02, -1.64281338e-01, -1.08664427e-02,
          2.69081056e-01, -1.48566663e-01, -3.04601014e-01,
          2.06835151e-01, -6.37374073e-02, 2.20329568e-01,
          1.91679358e-01, 1.15964137e-01, 6.33654092e-03,
          -7.63916224e-02, 5.25156502e-04, -2.70337295e-02,
          7.01394007e-02, 4.60959263e-02, -2.75730398e-02,
          1.95385098e-01, 1.14224963e-01, -4.60350782e-01,
          2.72291545e-02, 2.49940027e-02, 2.50464380e-01,
          -1.12443762e-02, 9.07486379e-02, 6.34493232e-02,
          -1.51072508e-02, 5.39082699e-02, 5.28965965e-02,
          -2.81367958e-01, -2.21230656e-01, -3.72792482e-01,
          3.92183959e-01, 2.56442785e-01, -3.97992641e-01,
          -2.16878906e-01, -2.03148630e-02, -1.95785359e-01,
          -3.03630263e-01, -4.19469565e-01, 5.58060873e-03,
          5.99588268e-02, 1.29343987e-01, -3.87196690e-01,
          1.57568142e-01, -3.64254266e-01, -3.93423587e-01,
          -4.74400027e-03, 7.88895935e-02, 1.00322731e-01,
          1.75031319e-01, -3.70785147e-02, 1.11945411e-02,
          1.03071682e-01, 4.64225635e-02, -5.38503937e-03,
          -1.15610719e-01, 6.99272333e-03, -1.08858988e-01,
          -2.79315263e-02, 2.61722147e-01, -3.03405732e-01,
          6.13750555e-02, 3.82443666e-01, -2.16883793e-01,
          -5.76367192e-02, -1.46540210e-01, 2.45489985e-01,
          6.13331385e-02, -4.33021262e-02, -1.85286984e-01,
          1.87621891e-01, 6.17328994e-02, -1.55535415e-01,
          -2.58404184e-02, -9.14352015e-02, -1.07643247e-01,
          -1.57270551e-01, -5.90668842e-02 ]
      - [ -5.07118814e-02, 4.44904298e-01, -3.48707624e-02,
          -3.31932120e-02, -1.56746447e-01, -1.07326634e-01,
          -3.07055321e-02, 1.04589731e-01, -1.69857308e-01,
          3.12123429e-02, 8.32705647e-02, 3.12509611e-02, 2.20283225e-01,
          -8.21787417e-02, -7.16375187e-02, 2.71191567e-01,
          3.35222334e-01, -3.36140037e-01, -1.20492101e-01,
          -1.80115268e-01, 2.54385352e-01, -1.78269833e-01,
          4.54230338e-01, 1.28966480e-01, -3.02147269e-01,
          -5.00709295e-01, -1.00501161e-02, 1.39443859e-01,
          -1.16632365e-01, 4.11977470e-02, -3.21279109e-01,
          -1.68205589e-01, 3.89710844e-01, -5.15814982e-02,
          1.34974197e-01, 7.28002265e-02, 2.05716118e-01,
          -6.04613163e-02, 1.27990544e-01, 2.81438380e-01,
          -5.28798439e-02, 1.75556973e-01, 1.22299995e-02,
          7.12617487e-02, -3.44387293e-01, 2.16242716e-01,
          -7.58740976e-02, -2.35292286e-01, -3.70617248e-02,
          -2.02666402e-01, -6.61212429e-02, -3.00573069e-03,
          4.94140871e-02, 1.79225221e-01, 5.39362356e-02, 3.88290346e-01,
          -1.61385417e-01, -1.35342121e-01, 1.84329554e-01,
          -2.14727640e-01, -2.38985211e-01, -4.45180386e-03,
          -5.14366925e-02, -2.07723558e-01, 1.18800990e-01,
          -9.54733342e-02, 7.90793672e-02, 3.55466962e-01,
          -2.66111106e-01, 2.00764656e-01, -2.54662007e-01,
          8.52424145e-01, 2.39395529e-01, -2.04317674e-01,
          -1.03214659e-01, 2.94525862e-01, 8.71680826e-02,
          1.17958874e-01, -8.36989209e-02, -4.95918274e-01,
          3.18388566e-02, 2.06280395e-01, -2.40368664e-01,
          -1.59237370e-01, 4.57405895e-02, -1.64479211e-01,
          -1.52989045e-01, -4.98303503e-01, -4.65749264e-01,
          2.13073388e-01, 4.00099605e-01, 2.02805847e-01, 3.12822759e-02,
          -3.93760800e-02, -3.46096754e-01, -9.28768795e-03,
          2.31535688e-01, 3.54661793e-02, -2.24310800e-01,
          -1.00426577e-01, -7.78561831e-02, -1.13050692e-01,
          -1.02451421e-01, 1.33723482e-01, 5.98073052e-03,
          -9.34043899e-02, -2.35603571e-01, -7.02033341e-02,
          -1.76480591e-01, 4.05963689e-01, 9.97994747e-03,
          1.45774111e-01, 2.19756603e-01, 2.02293769e-01,
          -2.65182227e-01, -3.95387337e-02, 2.91607585e-02,
          -3.46577436e-01, 1.81477770e-01, 4.93438318e-02,
          6.25400245e-03, -3.27573538e-01, 1.08383328e-01,
          -1.27584085e-01, 1.74351662e-01, -2.29049250e-01,
          2.39419952e-01, -1.62908286e-02 ]
      - [ 3.39667089e-02, -1.15374729e-01, 1.95173010e-01,
          7.10201561e-02, 2.16626644e-01, -8.54308084e-02,
          -3.59681129e-01, 1.94523051e-01, -7.93196261e-02,
          2.27707881e-03, -4.08774406e-01, -2.05821265e-02,
          -2.68144272e-02, -6.00292296e-05, 3.76720838e-02,
          -1.13915436e-01, 9.83934700e-02, -9.56845433e-02,
          4.79408145e-01, 3.03538740e-01, 2.28543982e-01, 7.23963007e-02,
          7.74601623e-02, 2.70901263e-01, -2.37204462e-01,
          -1.31008342e-01, 4.23900783e-02, -1.56622417e-02,
          -1.11801252e-01, 3.09974095e-03, -2.71134198e-01,
          -1.13971233e-02, -1.60367340e-01, 7.68709108e-02,
          4.60498147e-02, 2.14940846e-01, 2.18557701e-01,
          -1.93515196e-01, 1.77252367e-01, 4.12002593e-01,
          6.86560869e-02, 6.92280531e-02, 3.08710355e-02, 1.36057213e-01,
          -2.13182732e-01, 2.98984259e-01, 3.77321243e-02,
          3.77570279e-02, -1.53981552e-01, -7.75600448e-02,
          -2.65732169e-01, 1.36135697e-01, 1.64671510e-01,
          1.22389078e-01, -9.94420573e-02, -1.58799827e-01,
          1.25291005e-01, 1.03266515e-01, -5.18989153e-02,
          1.99752867e-01, -3.08745187e-02, -2.60840774e-01,
          -1.38316169e-01, -1.15734801e-01, -1.54475138e-01,
          -1.22453123e-01, 4.78922933e-01, 1.07970737e-01,
          -1.28518060e-01, 1.06856503e-01, -1.77237915e-03,
          2.05423534e-01, -1.08313583e-01, 2.24253342e-01,
          -8.99845883e-02, 1.19685307e-01, 2.16186419e-01,
          1.68954268e-01, -2.88275540e-01, 3.64210526e-03,
          -1.68454126e-01, -2.05352813e-01, 2.28392765e-01,
          -3.30736488e-02, -7.91670606e-02, -1.11509129e-01,
          7.28969276e-02, -1.95579544e-01, -1.68930382e-01,
          -1.51001826e-01, 5.37007451e-02, 3.91112529e-02,
          -3.71562034e-01, -1.09667890e-01, -1.00667126e-01,
          -3.99970353e-01, -3.80424708e-02, -3.01715434e-01,
          4.36887592e-02, 1.58075526e-01, 3.97137702e-02, 1.45432845e-01,
          -2.35732034e-01, -8.31932276e-02, -1.65647894e-01,
          -2.21883729e-01, -2.72310488e-02, -3.41130942e-01,
          8.32346007e-02, -6.27947971e-02, -1.47163104e-02,
          -2.68156767e-01, 1.60113692e-01, 4.91183028e-02,
          -1.48953842e-02, -1.44998759e-01, -1.05439024e-02,
          1.33909911e-01, 1.72998399e-01, 1.46506935e-01,
          -1.47002846e-01, -8.06603134e-02, -2.44958147e-01,
          -3.16522092e-01, 1.38038278e-01, -4.07482125e-02,
          2.72126317e-01, 1.98256478e-01 ]
      - [ -3.95679995e-02, 3.52381051e-01, 1.62985936e-01,
          4.05602623e-03, -4.63250391e-02, -2.99277484e-01,
          -1.58544794e-01, 2.90436000e-01, -4.36451957e-02,
          9.53086168e-02, -1.52553886e-01, 4.52230573e-01,
          4.62429702e-01, -1.43737182e-01, 1.83410481e-01,
          1.97733253e-01, 1.39855847e-01, 3.18207711e-01, 4.42618400e-01,
          1.17962860e-01, 1.74805611e-01, -2.55191743e-01,
          -9.59663242e-02, 6.78349510e-02, -9.62092280e-02,
          -4.39821005e-01, -1.94306836e-01, 2.73756713e-01,
          -4.38357830e-01, -1.32780537e-01, -3.46293390e-01,
          -2.40959883e-01, -1.13827698e-01, -1.65111437e-01,
          1.36447087e-01, 1.56222573e-02, 2.74919689e-01,
          -2.11738899e-01, -1.39859140e-01, 3.33315939e-01,
          2.06572756e-01, 5.83247602e-01, 4.94794816e-01, 2.30272546e-01,
          -1.31472692e-01, 1.21362269e-01, 1.13280788e-01,
          -6.83637634e-02, 1.26826242e-01, 7.99296647e-02,
          -4.92303699e-01, 2.47378677e-01, 9.18048024e-02,
          3.36846352e-01, -9.60893705e-02, -2.08605044e-02,
          2.09153682e-01, 1.86932206e-01, 2.35742822e-01, 2.83419043e-01,
          3.28079909e-01, 2.51012534e-01, 6.34380057e-02, 1.39315054e-01,
          3.81195486e-01, -1.87122598e-01, 2.53541589e-01,
          3.35448794e-02, -1.28565431e-01, 2.40912125e-01,
          -3.58255208e-02, 5.95407844e-01, -1.33967713e-01,
          3.14383000e-01, -1.55519560e-01, -2.51638591e-01,
          1.11776963e-01, 5.86021021e-02, -5.46342991e-02,
          -2.41456181e-01, 1.95875898e-01, -2.05948308e-01,
          2.16251612e-01, -2.73341358e-01, -2.08138283e-02,
          -2.47950107e-01, -3.33751377e-04, -3.00630808e-01,
          -5.54021478e-01, 1.58948213e-01, -1.69494271e-01,
          1.13047667e-01, -1.84018046e-01, -9.64612663e-02,
          -4.37246770e-01, -2.60650247e-01, -1.10996574e-01,
          -2.27676392e-01, 1.35294870e-01, 3.43601227e-01,
          -5.17489202e-02, 3.23519081e-01, -5.90949692e-02,
          -2.08316803e-01, -4.93985154e-02, -2.76833344e-02,
          -5.29317200e-01, 5.93719929e-02, -2.14903265e-01,
          1.86442688e-01, 6.91318214e-02, -1.50753856e-02,
          1.89497381e-01, 3.43996733e-01, -3.03962022e-01,
          -4.34847102e-02, 1.38175845e-01, -1.01813227e-01,
          2.73098081e-01, 2.14639723e-01, 4.79263328e-02,
          -3.05582792e-01, -1.56687543e-01, -1.93416730e-01,
          8.40087384e-02, -1.85779884e-01, 3.04159433e-01,
          -2.21496955e-01 ]
      - [ -1.88734442e-01, 1.72969066e-02, 2.01412722e-01,
          2.64251202e-01, -1.28414324e-02, 3.15577798e-02,
          -1.87319927e-02, 1.26031011e-01, -3.83679084e-02,
          3.81941468e-01, -3.39668006e-01, -1.10258326e-01,
          1.69215873e-01, 1.59091681e-01, 8.12868103e-02, 1.01445034e-01,
          5.12399673e-02, -1.31200805e-01, -6.15923963e-02,
          1.90749899e-01, -1.28109846e-02, 2.40918119e-02,
          1.96797490e-01, -1.02332616e-02, -4.95340601e-02,
          -3.14144373e-01, 2.49707341e-01, 2.06959546e-01,
          -4.31228548e-01, 4.06011567e-02, -4.52847481e-01,
          -1.41864374e-01, -1.98548645e-01, -1.28695546e-02,
          7.22729564e-02, 1.33919895e-01, -6.99841902e-02,
          -1.33838400e-01, 1.44990027e-01, 1.16400309e-02,
          3.78276370e-02, -2.13193983e-01, -1.18589416e-01,
          2.12647989e-01, 3.19772393e-01, 1.58746108e-01,
          -6.11788929e-02, -7.98739195e-02, -1.58496082e-01,
          -5.70156276e-02, -1.78277194e-01, 1.21116459e-01,
          -1.45566776e-01, 8.66938531e-02, -2.31946945e-01,
          -1.81425795e-01, -1.91737652e-01, -2.36272365e-01,
          1.18973225e-01, 3.57308015e-02, 2.64967561e-01, 1.99294761e-01,
          -3.17574292e-02, -3.65506560e-01, -6.49572536e-02,
          -2.69875973e-01, -1.25273377e-01, -1.11440450e-01,
          -1.65758044e-01, -3.26432921e-02, -3.52643669e-01,
          2.34373480e-01, 2.82869071e-01, -7.02233762e-02,
          8.16321000e-02, 4.07662615e-02, 1.44180626e-01,
          -5.13413735e-02, 3.24794650e-01, 1.50980368e-01,
          1.06523216e-01, 7.48240352e-02, -3.58400270e-02,
          2.30469078e-01, -8.42783377e-02, -1.70409948e-01,
          3.24307352e-01, -2.38012299e-01, -1.13962315e-01,
          2.27547474e-02, -7.30699077e-02, 2.43948832e-01,
          -1.05573528e-01, 8.80345926e-02, -7.03233629e-02,
          -2.59744227e-01, 2.74858892e-01, -9.34105192e-04,
          -7.19288588e-02, 3.38151813e-01, 1.35318130e-01,
          1.53772056e-01, -4.19352204e-01, 6.39107823e-02,
          8.79903734e-02, -1.33334398e-01, -1.96945980e-01,
          -6.70749098e-02, -8.14048052e-02, 1.77382201e-01,
          2.79358834e-01, -2.98284113e-01, 1.21963404e-01,
          5.17794602e-02, -1.79940313e-01, 8.23863447e-02,
          -8.39178190e-02, 1.70673177e-01, -2.14168474e-01,
          4.78404760e-02, 4.80415709e-02, 4.88039441e-02,
          -3.83597434e-01, 6.46490455e-02, -1.54133379e-01,
          9.00393501e-02, 1.72852561e-01, -5.09093367e-02 ]
      - [ -5.87032326e-02, -1.75156832e-01, 1.23111404e-01,
          3.22757244e-01, 3.14436927e-02, -1.70705736e-01,
          2.35960811e-01, 1.60866395e-01, 6.53766617e-02,
          -5.49672497e-03, -1.80756226e-01, -1.78903252e-01,
          1.84757322e-01, -2.68801689e-01, -1.33872658e-01,
          -1.16969123e-01, 2.33994007e-01, -2.70582028e-02,
          1.01101428e-01, 1.14563949e-01, 1.82094306e-01,
          -6.64076814e-03, 2.00266615e-01, -3.75917414e-03,
          -7.46847689e-02, -5.48626482e-01, 2.90660173e-01,
          1.22083381e-01, -4.38406229e-01, -4.49957661e-02,
          -3.63934875e-01, -1.18859507e-01, 1.66872025e-01,
          -1.67335019e-01, -7.73417950e-02, -4.37765047e-02,
          2.50404149e-01, -1.53569341e-01, 1.26957506e-01,
          1.48239911e-01, -1.13430329e-01, -1.23807818e-01,
          -1.80973232e-01, -6.65114373e-02, 9.45684463e-02,
          3.61546725e-01, 1.31849781e-01, -1.49432808e-01,
          6.83983490e-02, -7.90286884e-02, -2.66880423e-01,
          2.65919745e-01, -7.00591505e-02, -2.94130564e-01,
          -9.78969131e-03, 2.16855556e-01, -2.22014084e-01,
          3.14482957e-01, 1.67950511e-01, 5.80379218e-02, 6.33384660e-02,
          -1.37040243e-01, -1.34666398e-01, -2.99105078e-01,
          1.29944697e-01, 1.39265463e-01, 2.94110179e-01, 1.03479527e-01,
          -2.10373640e-01, -1.23315729e-01, -5.12485243e-02,
          -4.58220914e-02, 2.96612710e-01, -2.29718253e-01,
          1.19458502e-02, 6.45397827e-02, 6.17892556e-02, 1.63502440e-01,
          -1.68512180e-01, 1.14537805e-01, -1.09989375e-01,
          1.20643049e-01, 2.49254465e-01, 1.19040050e-02,
          -1.05731905e-01, 1.48706183e-01, 3.37867066e-02,
          -3.43473971e-01, -1.90043777e-01, 2.14267299e-01,
          1.51941881e-01, 2.86371589e-01, -2.99007595e-01,
          8.52626413e-02, -3.21432710e-01, -2.07325861e-01,
          -1.10058166e-01, -2.21023962e-01, -2.09159985e-01,
          4.87499177e-01, -4.77313586e-02, 2.02189490e-01,
          1.71538040e-01, -1.68558583e-01, -2.04753220e-01,
          -1.36644110e-01, 8.08102563e-02, -2.85513811e-02,
          -7.88650736e-02, 3.88378464e-02, -1.62979499e-01,
          -1.40616987e-02, 1.75615966e-01, 2.15159189e-02,
          -2.61510387e-02, -1.02065224e-02, -3.97586562e-02,
          2.02373996e-01, 1.47489356e-02, 1.21753074e-01,
          -3.76209617e-02, -1.03099383e-01, -3.46820682e-01,
          1.49654876e-02, -1.23861410e-01, 7.74128959e-02,
          9.63207334e-02, -3.85008287e-03 ]
      - [ 1.56306848e-01, 5.95904142e-02, 2.65961409e-01,
          -1.09172888e-01, 3.39421362e-01, -9.77908224e-02,
          -1.57903356e-03, 4.16334905e-02, 1.53051570e-01,
          -2.03566507e-01, -2.70219982e-01, 9.20658186e-02,
          1.37243211e-01, -2.37982776e-02, 1.01461940e-01,
          5.68065494e-02, 3.82696353e-02, -7.91704729e-02,
          4.13543731e-01, 3.93253006e-02, -9.98076946e-02,
          1.92868665e-01, 1.27083212e-01, 2.23977983e-01,
          -3.35020393e-01, -3.69453400e-01, 1.62166819e-01,
          -1.01848990e-01, -2.14558780e-01, 1.63195327e-01,
          -2.06208676e-02, -1.90467730e-01, -7.70613924e-02,
          1.97523087e-02, -1.49788514e-01, -2.64940202e-01,
          3.22512537e-01, -1.80516988e-01, 2.09773824e-01,
          2.94581115e-01, -5.36791161e-02, -2.88146555e-01,
          1.34743929e-01, 5.94356768e-02, 1.33392021e-01, 2.65313148e-01,
          -1.54737934e-01, -2.13160858e-01, 1.72640681e-01,
          1.41374469e-01, -3.16831261e-01, -1.15589306e-01,
          6.52725920e-02, -2.13981178e-02, -1.90026864e-01,
          -3.16569060e-01, 1.87959015e-01, 1.74634233e-01,
          -1.67745352e-01, 5.94367906e-02, -8.50524679e-02,
          -6.22080676e-02, -1.15875468e-01, -4.07550717e-03,
          -3.05587530e-01, 3.92914824e-02, 4.11604494e-01,
          -3.57693911e-01, -3.60974789e-01, 2.24362127e-02,
          8.52300823e-02, 1.35991827e-01, 2.12215647e-01, 2.78636873e-01,
          -2.18049586e-01, -5.49783930e-02, 1.64348502e-02,
          1.55406252e-01, -2.69634388e-02, 3.67315195e-04,
          -2.71437615e-01, 2.61330217e-01, 3.11842322e-01,
          -2.17712939e-01, -1.36124730e-01, -1.50825575e-01,
          1.12540357e-01, -1.88314721e-01, -1.99029580e-01,
          -4.06531803e-02, -8.15462973e-03, 1.05299331e-01,
          -4.28150028e-01, -1.65509045e-01, 1.16718382e-01,
          -4.12974775e-01, -2.73770630e-01, 6.90464079e-02,
          -1.60285994e-01, -8.21591541e-02, 8.59910622e-02,
          -1.47138774e-01, -7.04002706e-03, 7.49485046e-02,
          -4.46549766e-02, 6.06946386e-02, 7.68222008e-03,
          -2.12421063e-02, -1.00711197e-01, -1.62105501e-01,
          -5.20562194e-02, -2.34365925e-01, 1.99048221e-01,
          3.73150408e-02, -1.46533310e-01, -7.23590329e-02,
          2.75243640e-01, -3.49620581e-02, -1.32473692e-01,
          5.36270365e-02, -1.38720155e-01, -2.17174310e-02,
          -8.04480463e-02, -1.90414652e-01, -4.99740839e-02,
          -4.43692617e-02, -8.46214294e-02, -1.92316756e-01 ]
      - [ -1.45619586e-02, 2.97847986e-01, 8.85270163e-02,
          6.78864866e-02, 1.01923615e-01, -2.53534839e-02,
          1.74892172e-01, 4.55973335e-02, 1.34747341e-01,
          -6.71451986e-02, -7.20711658e-03, 1.30175322e-01,
          -2.27055639e-01, -2.45483860e-01, 2.33427271e-01,
          3.04303952e-02, -1.42339230e-01, 1.17542818e-01,
          -1.77595913e-02, 8.21142867e-02, 2.47542158e-01,
          -2.38492101e-01, 1.40841886e-01, -9.26991776e-02,
          -1.18255743e-03, -1.67643055e-01, 7.90382270e-03,
          1.62216157e-01, -4.30748492e-01, 1.27523229e-01,
          -6.16388261e-01, 5.36251850e-02, -5.38023710e-01,
          1.97913632e-01, -5.35829403e-02, 1.07750157e-02,
          -2.15387288e-02, -2.96923518e-01, -4.66310047e-02,
          -1.79031432e-01, -9.72460881e-02, -5.35276234e-02,
          -1.70996681e-01, 7.42072193e-03, -2.25698337e-01,
          1.31803706e-01, 2.53807068e-01, -2.90461242e-01,
          -2.45777130e-01, 1.47090435e-01, 9.95205063e-03,
          1.46182403e-02, 1.80262178e-01, -1.60598513e-02,
          1.73200861e-01, -3.37413341e-01, -1.82726592e-01,
          1.20222554e-01, 3.51967603e-01, 1.30155459e-01, 2.17076521e-02,
          -1.52941301e-01, 3.54684591e-01, -2.87540555e-01,
          3.76734346e-01, -1.53230503e-01, -1.27785340e-01,
          1.24118313e-01, -9.41937491e-02, 1.05037399e-01,
          -1.83251128e-02, -1.27350584e-01, 1.53899901e-02,
          5.37411384e-02, -8.04237202e-02, 2.87877619e-01,
          5.22594415e-02, 3.07775646e-01, -3.17531358e-03,
          -2.14583129e-02, 6.84180297e-04, -2.60667149e-02,
          -1.78902805e-01, -3.12615670e-02, -1.89971268e-01,
          6.61457479e-02, 1.31316334e-01, -2.35733524e-01,
          -1.86514169e-01, 6.62515089e-02, 3.07598084e-01,
          -1.12759091e-01, -1.29100487e-01, -1.65327847e-01,
          -2.93540895e-01, -3.93711701e-02, -5.35592213e-02,
          -2.74635643e-01, 6.37130588e-02, 3.83849978e-01,
          -2.89979219e-01, 2.02718340e-02, -2.92124553e-03,
          -7.10198507e-02, -1.26357198e-01, -2.58594424e-01,
          -2.93860257e-01, 1.15208566e-01, -7.33690858e-02,
          3.09002429e-01, 7.44621977e-02, -2.05518976e-01,
          1.62747398e-01, 5.08443266e-02, 1.97334886e-01,
          -1.23601481e-02, -1.91355571e-01, 6.99076802e-02,
          1.75056741e-01, 2.45476857e-01, -1.24111123e-01,
          -1.21645741e-01, -1.64727345e-01, -3.48636433e-02,
          -2.04110190e-01, 5.55354431e-02, 1.40069798e-01,
          -1.17420025e-01 ]
      - [ 5.45979924e-02, 1.30754754e-01, 4.59085368e-02, 6.91246167e-02,
          5.53879738e-02, -3.58646721e-01, -2.24567279e-01,
          1.33763999e-01, -6.98243454e-02, 4.90904838e-01,
          -3.30643952e-01, 1.71869606e-01, 5.58394343e-02,
          -9.23618004e-02, -1.26684293e-01, 3.02395802e-02,
          1.31708816e-01, -1.83354810e-01, 3.24816048e-01,
          1.53735608e-01, 1.70640126e-01, 3.40203475e-03,
          -5.47082573e-02, 5.46730578e-01, -3.02435338e-01,
          -5.59281886e-01, -1.32167190e-02, -8.00182985e-04,
          -4.23767464e-03, 1.18904874e-01, -3.43980312e-01,
          -2.16170415e-01, -1.63725898e-01, -1.47054225e-01,
          -6.54195845e-02, -9.00679752e-02, 1.35129973e-01,
          -1.18276253e-01, 5.75464144e-02, 1.35105088e-01,
          7.52560422e-02, -1.53656498e-01, -1.83145460e-02,
          4.97917533e-01, -4.18542445e-01, 1.98440999e-02,
          2.63221916e-02, -9.60500911e-02, -2.81861871e-01,
          -1.77628577e-01, 3.72199379e-02, 3.56259078e-01,
          -1.95744231e-01, -8.43199492e-02, -2.20751092e-01,
          3.60299088e-02, 2.19381880e-02, 6.38013845e-03,
          -2.42823958e-01, 1.72653064e-01, -5.78851588e-02,
          -2.71301329e-01, -5.90798892e-02, -2.76378989e-01,
          9.32695121e-02, -5.15633309e-03, 2.45486304e-01,
          8.53857324e-02, -2.26518333e-01, -1.35078207e-01,
          -4.43186425e-02, 1.17658928e-01, 2.59696215e-01,
          2.00432077e-01, 1.67429298e-01, 7.59646297e-02, 2.08844051e-01,
          1.91231951e-01, -2.08059281e-01, -2.92969823e-01,
          1.35564562e-02, 1.36692420e-01, 1.34369820e-01,
          -1.09669557e-02, -3.71167153e-01, -1.86994467e-02,
          -1.77036628e-01, -3.43724251e-01, -2.00123221e-01,
          1.40905425e-01, 9.77940932e-02, -8.85201339e-03,
          5.73994312e-03, 6.04007952e-02, -3.47124413e-02,
          -3.23269784e-01, 2.30411321e-01, -1.66459069e-01,
          4.60862629e-02, 7.16943368e-02, -2.38114104e-01,
          3.29624087e-01, -3.86916921e-02, -1.10156499e-01,
          -1.43042952e-01, -5.22916257e-01, 6.70613050e-02,
          9.94405244e-03, 8.17765668e-02, -3.05232424e-02,
          -7.15410709e-02, 2.05453243e-02, 4.34318513e-01,
          -4.98780459e-02, -1.67444557e-01, -2.38150313e-01,
          2.62319028e-01, 1.95467740e-01, -6.43100664e-02,
          2.32685447e-01, -2.10733265e-01, -1.67152032e-01,
          -2.82783717e-01, -1.63554341e-01, -2.51599140e-02,
          2.12233663e-01, -8.08293372e-02, -8.81542116e-02 ]
      - [ 4.72298823e-03, 1.97114259e-01, 3.23905230e-01,
          -8.81151780e-02, 6.12047128e-02, -1.56015530e-01,
          5.16192317e-02, 1.72595590e-01, -4.04097140e-02,
          -6.26021102e-02, -2.54757166e-01, 2.03264788e-01,
          2.75606394e-01, -1.79193854e-01, 1.11671992e-01,
          1.38830453e-01, 3.24646831e-01, 1.64307818e-01, 3.24677378e-01,
          2.27314159e-01, 7.51169175e-02, 1.70786649e-01, 1.06901333e-01,
          1.58924460e-01, -1.63058385e-01, -4.45406586e-01,
          8.42746720e-02, 8.27631652e-02, -2.16699943e-01,
          -7.09368906e-04, -3.52287978e-01, -2.93704420e-01,
          -1.42012596e-01, 5.82313072e-03, 1.64521277e-01,
          -6.17112890e-02, 1.40406325e-01, -1.18235424e-01,
          -4.86540012e-02, 2.69898027e-01, -9.06908363e-02,
          -1.10240810e-01, -5.08163944e-02, 1.49704963e-01,
          3.17429163e-04, 1.44334435e-01, 4.63882238e-02,
          -1.84654608e-01, 6.76086321e-02, 9.76652876e-02,
          -3.43244910e-01, 2.86145389e-01, 2.17905983e-01,
          1.07357427e-01, -2.16318011e-01, -4.08165529e-02,
          -4.46329750e-02, 4.20927182e-02, -1.56217188e-01,
          1.51045397e-01, 7.72015378e-02, -8.78026243e-03,
          -1.51901487e-02, -1.41432695e-02, 1.30811602e-01,
          -1.16389714e-01, 4.55766976e-01, -1.12093955e-01,
          -8.32433477e-02, 7.31090382e-02, -2.75623295e-02,
          2.64479846e-01, 1.02472380e-01, -7.45982379e-02,
          2.89280768e-02, -2.08483592e-01, 1.79688800e-02,
          -7.50348046e-02, -6.36284351e-02, -1.47686362e-01,
          -1.13387406e-03, 1.25794247e-01, 2.20608905e-01,
          -1.03618637e-01, 5.06821088e-02, 1.25723079e-01,
          1.22936301e-01, -3.85630786e-01, -2.49830097e-01,
          1.85289398e-01, -1.32749081e-01, 1.75499782e-01,
          -2.74317533e-01, -1.26198128e-01, -7.31875002e-02,
          -3.29126418e-01, 5.15325740e-02, -2.68929511e-01,
          2.29207575e-01, 3.76862943e-01, 1.68494955e-01, 5.00366926e-01,
          3.03411782e-02, 1.77846745e-01, -1.11733980e-01,
          1.33292347e-01, -3.12895894e-01, 8.40931684e-02,
          -1.19620480e-01, -2.51302660e-01, -1.15160152e-01,
          5.36904819e-02, 1.76253587e-01, 1.36093423e-01,
          -1.50602385e-01, -1.45145014e-01, 2.75899321e-02,
          1.70748219e-01, 7.12433308e-02, -2.07195859e-02,
          5.27414605e-02, -5.06307259e-02, -2.80821323e-01,
          -3.59576374e-01, -1.18977122e-01, 1.05648600e-01,
          3.38267498e-02, -1.03777170e-01 ]
      - [ -1.49331568e-03, 1.43287063e-01, 2.45086119e-01,
          -3.82634699e-02, 1.10661492e-01, 2.14440040e-02,
          3.42932999e-01, -1.07611783e-01, -1.21309012e-01,
          6.80730790e-02, -2.77718931e-01, -2.46716693e-01,
          2.44198158e-01, -7.13628680e-02, 1.15323670e-01,
          -1.35900781e-01, 5.58042750e-02, -1.83446199e-01,
          -4.05069487e-03, -2.01754365e-02, -1.81950003e-01,
          1.80919677e-01, 2.52666950e-01, 1.65577456e-02,
          -3.33493739e-01, -5.20907342e-01, 2.90823936e-01,
          -7.86181465e-02, -2.30054706e-01, 2.11797029e-01,
          -2.78328154e-02, -2.84248412e-01, -3.89414318e-02,
          7.09623331e-03, -5.03530959e-03, -6.23544976e-02,
          5.58597818e-02, 2.66199000e-02, 7.86643326e-02, 1.63211480e-01,
          2.24999502e-01, -3.26966137e-01, 7.51974434e-02,
          1.66222543e-01, 1.79896131e-01, -3.32347280e-03,
          4.39054258e-02, -1.89004526e-01, -2.05878094e-01,
          -1.73650339e-01, -2.65062690e-01, 8.74700248e-02,
          6.11147583e-02, 2.59156644e-01, -5.38977683e-01,
          -2.09181353e-01, -1.16139911e-01, 3.24727632e-02,
          -3.72601420e-01, -5.12398481e-01, -8.70808139e-02,
          -1.40198454e-01, -2.99379468e-01, -1.20754302e-01,
          -2.40994707e-01, -1.10358521e-01, 2.71247149e-01,
          -2.27839813e-01, -2.86620617e-01, -9.11784545e-02,
          -1.85710192e-01, 2.66258597e-01, 3.72559130e-01,
          -2.54878163e-01, -3.18795562e-01, 1.59898520e-01,
          2.09498014e-02, -5.93441427e-02, 6.65101260e-02,
          -9.45316404e-02, 5.44564053e-02, 6.02109849e-01,
          2.07638279e-01, 8.03154521e-03, -6.53793812e-02,
          -5.61175011e-02, 4.81897861e-01, -1.97131038e-01,
          -1.43734932e-01, 3.25791597e-01, -2.43068784e-01,
          3.91304679e-02, -1.27833441e-01, 1.84925601e-01,
          4.01047356e-02, -3.24370563e-01, 2.92547252e-02,
          -9.22575891e-02, 2.03471512e-01, 2.30263382e-01,
          1.20112844e-01, 1.95531487e-01, -7.36764669e-02,
          3.47929746e-01, -4.32924032e-02, 3.22922379e-01,
          -1.98686972e-01, 2.75120914e-01, 7.91393518e-02,
          -1.59955710e-01, -1.35029361e-01, -2.57785320e-02,
          1.04361452e-01, 1.29367650e-01, -3.50194812e-01,
          7.93250650e-02, -8.62909108e-02, -2.44195223e-01,
          -2.43097097e-01, -2.38323599e-01, -4.75016646e-02,
          2.24654645e-01, -2.95998961e-01, -7.12927058e-02,
          -5.26628681e-02, 1.37462005e-01, -2.09747721e-02,
          -1.22991778e-01 ]
      - [ 5.88676855e-02, 1.04575239e-01, -2.83049438e-02,
          -1.03949375e-01, -2.84545660e-01, 3.35229933e-02,
          -1.14937514e-01, 3.21221590e-01, 1.36982370e-02,
          -1.12829603e-01, -3.47080119e-02, 1.53666109e-01,
          1.23611212e-01, 1.23295382e-01, -1.82412803e-01,
          6.60739541e-02, 2.50242233e-01, 1.79827064e-01, 9.99785680e-03,
          5.32007277e-01, -1.04730353e-01, 2.49679819e-01,
          -1.22670896e-01, -1.10399097e-01, -4.64587241e-01,
          1.19760528e-01, -3.80146295e-01, 1.02962069e-01,
          -1.45589635e-01, 1.04756318e-01, -2.12084204e-01,
          -1.12159923e-01, -3.29509079e-01, 1.03998296e-02,
          7.40675777e-02, 6.23756088e-02, -9.85704064e-02,
          1.36938989e-01, 8.61479491e-02, 6.35078549e-02,
          -2.63875157e-01, 1.82216153e-01, -1.98451817e-01,
          -1.94306731e-01, 1.91419140e-01, -2.14451551e-01,
          5.72176337e-01, 1.49154469e-01, 6.48090290e-03, 1.68664902e-01,
          6.16634041e-02, -1.72832742e-01, -1.04650468e-01,
          -2.03050911e-01, -1.16432972e-01, -4.02595669e-01,
          5.61308041e-02, 4.36724186e-01, 7.78753683e-02, 2.18564361e-01,
          1.51979208e-01, 7.52463713e-02, 5.21090534e-03, 1.56498015e-01,
          2.78146923e-01, -7.00008944e-02, 7.13962689e-02,
          7.34539255e-02, 3.61616790e-01, -1.35557160e-01,
          -5.89971542e-02, 5.55501692e-02, 6.26757834e-03,
          2.44770050e-01, 7.96108246e-02, 7.02680349e-02,
          -7.78694078e-02, -1.65824279e-01, 3.80029202e-01,
          -1.33248970e-01, -2.09593862e-01, -4.63378876e-01,
          7.30789080e-02, 1.54201211e-02, -2.55476832e-01,
          2.44613305e-01, 3.64078254e-01, -6.54971078e-02,
          -7.37708211e-02, 2.66068336e-02, 7.79200643e-02,
          2.24553540e-01, -2.13385329e-01, -1.71987012e-01,
          1.96683910e-02, 2.20099427e-02, 1.08119786e-01,
          -8.86328518e-02, 6.74389526e-02, 1.18589379e-01,
          1.40401930e-01, 4.63190407e-01, -2.31543779e-01,
          -2.61547626e-03, -4.15532850e-02, -8.78422484e-02,
          -4.40211892e-02, -1.71736538e-01, 4.59509436e-03,
          -1.32806122e-01, 2.35385790e-01, -1.48191929e-01,
          -1.05623364e-01, 3.02476883e-01, -8.81394669e-02,
          6.75311983e-02, -1.72779903e-01, 1.28608167e-01,
          5.56706116e-02, 1.12930983e-01, -4.10923749e-01,
          4.01568472e-01, -5.43162763e-01, -2.10839555e-01,
          -2.84630448e-01, -3.08470540e-02, -1.57670721e-01,
          -5.85345864e-01 ]
      - [ 1.04033083e-01, 2.23718107e-01, -9.93080959e-02,
          2.88609415e-01, -2.97628731e-01, -3.49556506e-02,
          -5.54803126e-02, -6.80334345e-02, -1.51193663e-01,
          3.35216969e-01, -1.19974129e-01, 1.23136997e-01,
          -6.66398183e-02, 2.45371297e-01, -3.28566641e-01,
          -5.79722285e-01, -3.65260512e-01, -4.66015339e-02,
          4.28455114e-01, 3.48418295e-01, 5.03142662e-02, 5.30025214e-02,
          -2.61822969e-01, 6.04775995e-02, -8.53417441e-02,
          2.00416625e-01, -4.99066204e-01, -2.51305732e-03,
          -2.94135027e-02, -1.92878485e-01, 2.20330670e-01,
          3.47154103e-02, -4.67242718e-01, 1.94912702e-01,
          -1.74154982e-01, -8.91372859e-02, -2.38938749e-01,
          -3.12361240e-01, 1.05563760e-01, -1.99538782e-01,
          2.91000009e-01, 5.76293290e-01, 1.41945675e-01, 1.72851905e-01,
          1.49654495e-02, 5.64023219e-02, 2.47015461e-01, 3.19995493e-01,
          -1.55217573e-01, 2.03315258e-01, 1.43450618e-01,
          2.19783500e-01, -5.54189347e-02, -1.80327401e-01,
          -2.00400278e-01, -2.40509287e-01, 2.21057549e-01,
          3.45212854e-02, -1.67922020e-01, -1.58798117e-02,
          2.86118984e-01, -9.16500762e-02, 2.97192624e-03,
          -2.75894046e-01, -1.06655985e-01, -4.86029945e-02,
          -4.51694690e-02, 3.24280225e-02, -1.65011873e-03,
          -6.99607432e-02, -4.24479991e-02, -1.03890583e-01,
          8.12650844e-02, -1.25504583e-02, -2.80234128e-01,
          -1.06637832e-02, 2.29392290e-01, 9.05110687e-02,
          1.14623383e-01, 6.87324479e-02, 1.49531811e-01,
          -3.02367270e-01, 3.09995264e-01, -2.15941459e-01,
          -3.49937469e-01, 5.66391200e-02, -6.67566881e-02,
          4.57047373e-01, 3.98749709e-01, 6.92199096e-02,
          -7.54039660e-02, 7.49111474e-02, 2.17213854e-02,
          5.75531662e-01, 5.92595637e-01, -3.32492292e-01,
          2.47465163e-01, 9.86110568e-02, 6.96585178e-02, 1.34172840e-02,
          3.50119829e-01, 1.27638429e-01, -3.82081768e-03,
          -1.45491853e-01, -5.26286624e-02, -1.58506364e-01,
          3.29216033e-01, 3.84759039e-01, -2.60386527e-01,
          -3.19575340e-01, 5.03039137e-02, 3.20504494e-02,
          -5.96212521e-02, 1.85527146e-01, 5.67241898e-03,
          1.07624240e-01, -3.68541516e-02, -4.84331325e-02,
          3.05632889e-01, 9.92582813e-02, -5.27895749e-01,
          2.40693659e-01, -3.73289496e-01, 1.45841688e-01,
          3.46287966e-01, -3.51497620e-01, -3.78489681e-02,
          4.19704616e-02 ]
      - [ -7.23580495e-02, -2.98893511e-01, 2.07994699e-01,
          -1.89150963e-02, -1.79247543e-01, 2.93765455e-01,
          2.87241023e-02, 1.94758356e-01, 7.70453662e-02, 1.02747500e-01,
          8.78839120e-02, -2.57865757e-01, 7.25818425e-02,
          -1.29923876e-02, -5.77335656e-01, -9.13437009e-02,
          1.69278741e-01, 1.11536361e-01, -1.39603361e-01,
          -3.64009403e-02, 2.58848429e-01, 1.82024479e-01,
          -1.47361308e-01, 4.27805819e-02, -3.54722179e-02,
          -1.15416035e-01, 1.26313239e-01, -1.22286417e-01,
          -2.96377223e-02, -9.81805921e-02, 2.78996855e-01,
          -6.92407340e-02, 1.49578884e-01, -1.51045576e-01,
          -1.20904244e-01, 1.51304044e-02, -7.09231272e-02,
          -2.71343708e-01, -5.02244592e-01, -2.08445698e-01,
          -7.90577009e-02, 1.24477735e-02, 2.70399958e-01,
          2.78615113e-03, 7.73737058e-02, -9.95292142e-02,
          6.48401260e-01, 1.08401487e-02, -1.75387278e-01,
          -1.80468652e-02, -2.73218185e-01, -7.39764720e-02,
          -7.85780475e-02, 5.75332195e-02, -3.72344442e-02,
          -3.61549333e-02, -6.94084167e-02, 9.55670998e-02,
          -1.76948398e-01, -3.14637530e-03, 4.24921699e-02,
          1.44800588e-01, 3.38931173e-01, 5.12277961e-01, 1.93879411e-01,
          1.23510472e-01, -7.97303915e-02, 4.50834006e-01,
          1.36121988e-01, -8.05002898e-02, -6.81811869e-02,
          6.72489628e-02, -1.42221510e-01, -2.14694247e-01,
          9.52087119e-02, 6.11120500e-02, -1.06807612e-01,
          -4.80990820e-02, 2.94461697e-01, 1.25669077e-01,
          -1.73826933e-01, -1.96964279e-01, 2.15732872e-01,
          -6.36801198e-02, 1.77903622e-01, 2.54750669e-01,
          -2.18129531e-02, 3.49128731e-02, 2.40755573e-01,
          -9.71244499e-02, 3.81106585e-02, 1.01467758e-01,
          6.71658888e-02, 2.39668593e-01, 3.50842535e-01, 2.19636738e-01,
          -3.06355178e-01, 1.33936442e-02, 3.44161779e-01,
          9.63838845e-02, 3.53531957e-01, 5.18876255e-01, 3.27801675e-01,
          -5.76132797e-02, -1.70389295e-01, 4.10917029e-02,
          -3.87910366e-01, 2.44871378e-01, -1.81668296e-01,
          -5.24201989e-01, -1.23197816e-01, -1.07900724e-02,
          2.05259603e-02, 3.09072942e-01, -4.08337265e-01,
          1.21437654e-01, -4.80255904e-03, 1.31187230e-01,
          -1.88870981e-01, 4.05156687e-02, -1.20401591e-01,
          2.29105055e-01, -9.00760368e-02, 1.82361994e-02,
          7.61915073e-02, -1.20797567e-01, 8.79478827e-02,
          -1.05853245e-01 ]
      - [ -3.95967931e-01, -6.53010756e-02, 1.85615748e-01,
          -1.20530821e-01, -1.56042531e-01, 7.46537000e-02,
          1.36183798e-01, -1.85714751e-01, -1.13051608e-02,
          2.51620114e-01, 3.97729158e-01, 1.81305092e-02,
          -3.08849037e-01, -2.12521508e-01, -9.41091776e-02,
          -1.58205673e-01, 2.15176955e-01, 3.34291995e-01,
          -9.56847742e-02, -2.80710077e-03, 1.32693619e-01,
          -3.61155093e-01, -1.76295131e-01, 1.21427476e-01,
          -1.72445148e-01, -1.36629522e-01, 2.30922580e-01,
          -2.67843634e-01, -3.12616378e-01, -7.43752122e-02,
          2.73967415e-01, 7.47602154e-03, 3.09728920e-01,
          -1.36399209e-01, -4.12817635e-02, 2.49315143e-01,
          -3.66763473e-01, 2.73434997e-01, -1.97439060e-01,
          1.38809815e-01, 5.58190681e-02, 4.11121808e-02,
          -5.69051206e-02, 1.56192318e-01, 1.05505750e-01,
          -3.32206368e-01, 2.60337740e-01, 2.76425004e-01,
          1.26678795e-01, -6.83688149e-02, 1.15026101e-01,
          -3.00687384e-02, 1.96753189e-01, -7.24019855e-02,
          2.81170070e-01, 5.48301041e-02, -1.64309233e-01,
          9.33718756e-02, -3.21934968e-01, -9.64342356e-02,
          1.89011529e-01, -4.23929989e-02, -2.41656229e-01,
          -2.45906487e-02, 4.24882114e-01, 3.40312459e-02,
          -1.59790978e-01, 5.03566802e-01, 1.08319320e-01,
          1.88040674e-01, -3.49245250e-01, -5.70769235e-02,
          2.43673865e-02, -4.26204920e-01, 3.27113681e-02,
          -1.53752163e-01, -1.09990902e-01, -2.34410226e-01,
          -3.45145792e-01, 1.98331863e-01, -2.38906637e-01,
          -1.41066134e-01, 1.00442000e-01, 3.42808627e-02,
          -6.01183139e-02, 9.08698797e-01, 1.12665623e-01,
          2.54288375e-01, 9.50402766e-02, 9.12788212e-02,
          -2.72710361e-02, 2.48697057e-01, 4.30211961e-01,
          3.26145947e-01, 4.03115988e-01, -1.34760499e-01,
          -6.52579814e-02, -3.78046967e-02, 1.44024089e-01,
          3.85507286e-01, 1.77677542e-01, 3.95747364e-01, 1.02138460e-01,
          -1.22220024e-01, 5.55017823e-03, -3.76482159e-01,
          -2.07551971e-01, 3.65212023e-01, 1.20931774e-01,
          -3.09657425e-01, -3.57361287e-01, -5.64347813e-03,
          -2.27243811e-01, 2.22272098e-01, -6.25909328e-01,
          1.95264295e-01, -1.50780916e-01, 1.34810925e-01,
          1.47801340e-01, 1.51930869e-01, -3.99075657e-01,
          2.08506778e-01, -1.14060186e-01, -3.55238259e-01,
          7.64348805e-02, -1.93665810e-02, -8.77693482e-03,
          2.76359737e-01 ]
      - [ -7.59069845e-02, 2.60500938e-01, -9.52505097e-02,
          -4.05167460e-01, -3.09024900e-01, 1.36410192e-01,
          -1.72332704e-01, -7.51319528e-02, 2.18025282e-01,
          -3.37355621e-02, 4.23612952e-01, 3.55523437e-01,
          9.79927778e-02, -5.18032670e-01, 6.63824677e-02,
          2.00957820e-01, 1.53285280e-01, 2.31794178e-01, 9.75515321e-02,
          2.54168417e-02, 3.08375925e-01, -3.60376626e-01,
          1.32624716e-01, 2.44064197e-01, -1.34794474e-01,
          8.73272941e-02, 1.26682669e-01, -3.84810157e-02,
          -1.04606308e-01, -1.31828234e-01, -1.51896805e-01,
          -1.19747184e-01, 2.49700427e-01, -1.30194336e-01,
          2.71201367e-03, 1.67010427e-01, -1.51538095e-02,
          -1.01759292e-01, -2.23039955e-01, -5.30093573e-02,
          -1.14014044e-01, 3.36601585e-01, -8.26839283e-02,
          -4.10733651e-03, 4.89158034e-02, -7.59224519e-02,
          2.78917938e-01, -2.34019831e-02, 3.12857389e-01,
          8.86793360e-02, 3.85867916e-02, -3.69316280e-01,
          -7.41040334e-02, 1.16484150e-01, 1.88353941e-01,
          3.63563776e-01, -2.30064690e-02, -9.55351349e-03,
          -1.10760234e-01, 1.98263928e-01, 7.99668282e-02,
          2.50955582e-01, 2.47474283e-01, 1.30690977e-01, 3.45604986e-01,
          1.67950377e-01, -2.04360276e-01, 3.44588727e-01,
          3.53299826e-01, 4.89527360e-02, -2.42855579e-01,
          3.88968647e-01, -1.73301220e-01, -1.83603525e-01,
          1.94376498e-01, -2.67188340e-01, -4.03577030e-01,
          -1.95102230e-01, -1.34647563e-01, -2.56432503e-01,
          -4.14576560e-01, -3.34031105e-01, 7.94791058e-02,
          -7.56873339e-02, 2.48687163e-01, 3.65548849e-01,
          1.09778926e-01, 2.77479678e-01, 2.83085275e-02,
          -1.55483885e-02, 1.72222659e-01, 8.24805722e-02,
          5.03514647e-01, 4.65628207e-02, 1.15633562e-01, 2.53484070e-01,
          -4.64074612e-02, -1.47186965e-01, -9.22884569e-02,
          9.81457457e-02, 2.42111236e-01, 2.53688604e-01, 4.71649647e-01,
          -3.39098386e-02, 1.10109128e-01, -2.69911557e-01,
          -4.20181543e-01, 3.54751080e-01, -5.90343922e-02,
          -6.29826412e-02, 5.59365004e-02, -1.79195091e-01,
          -2.81412601e-01, 2.88106978e-01, -3.43244791e-01,
          3.09099793e-01, -8.30054358e-02, 3.02956015e-01,
          4.37854618e-01, 2.86437273e-02, -1.28342152e-01,
          6.96356744e-02, 2.67364830e-01, -1.55231044e-01,
          5.80748394e-02, -4.61755067e-01, -6.51527792e-02,
          -6.36590421e-02 ]
      - [ -3.10379416e-01, 2.56307214e-01, -5.57589829e-01,
          3.99056524e-01, -1.03216484e-01, 9.64507908e-02,
          -8.97815898e-02, 3.43533635e-01, -5.87535277e-02,
          -1.14123285e-01, -2.09553495e-01, -1.17137637e-02,
          2.73395389e-01, -8.29342846e-03, -1.73779681e-01,
          -1.39028415e-01, -1.84963688e-01, 3.23760182e-01,
          -3.46447408e-01, 1.53226539e-01, -6.36200979e-02,
          2.25740850e-01, 7.67171979e-02, -9.42179710e-02,
          -1.83535263e-01, 3.03175658e-01, -1.93592012e-01,
          8.30680132e-02, -3.15319687e-01, -3.16746563e-01,
          -9.13136918e-03, 3.51350419e-02, 7.25079924e-02,
          1.49808392e-01, -3.48260510e-03, -2.07536921e-01,
          4.73905176e-01, -1.80533811e-01, -1.72044441e-01,
          -2.60743126e-02, -8.73231739e-02, 8.11919570e-02,
          2.01177578e-02, -1.25750870e-01, 3.77908275e-02,
          -1.25627846e-01, 4.82510448e-01, -5.25187738e-02,
          2.43822739e-01, -8.05626065e-02, -4.94854487e-02,
          -9.52725410e-02, -4.01101887e-01, -5.45046516e-02,
          1.84952724e-03, 3.55308473e-01, -5.91272302e-02,
          1.02467626e-01, 5.85484877e-02, -2.14233607e-01,
          -1.70641348e-01, 1.55435741e-01, -1.34861097e-01,
          1.45599246e-01, -6.55144900e-02, -2.84351092e-02,
          -3.20502430e-01, 2.00190961e-01, 2.58514732e-01,
          -4.46348667e-01, 2.31427401e-01, -8.42632204e-02,
          1.84793636e-01, 1.38391063e-01, 3.71571869e-01,
          -4.39362898e-02, -3.51796262e-02, 1.14255853e-01,
          -2.69808504e-03, -7.99682662e-02, -5.57632372e-03,
          -3.27086210e-01, -8.37886482e-02, 2.06232935e-01,
          2.80998759e-02, 4.74351287e-01, 6.62295818e-02, 3.67623299e-01,
          -2.56193746e-02, 2.81355441e-01, -9.74632427e-02,
          -3.44053030e-01, -3.87874730e-02, -3.22733670e-01,
          -1.33030877e-01, 2.55820900e-01, 1.65575415e-01,
          -1.47127360e-01, 2.32928827e-01, 8.52410272e-02,
          -3.04160565e-01, 3.15098584e-01, 1.93174761e-02,
          -1.25209570e-01, 3.97055484e-02, -3.90155047e-01,
          2.38590851e-01, -7.23682716e-02, -5.53435297e-04,
          7.03412741e-02, 5.13116419e-02, 6.99357390e-02,
          -2.46709004e-01, 2.33635247e-01, 2.77003529e-03,
          2.27330133e-01, -1.51599154e-01, -3.26185673e-02,
          1.24176376e-01, -2.26536244e-02, -1.27520129e-01,
          -1.46727845e-01, -1.90147415e-01, 2.52339184e-01,
          -3.89841467e-01, -1.37907416e-01, 3.35041955e-02,
          2.50999987e-01 ]
      - [ -8.43989849e-03, -3.26038599e-02, -1.58958972e-01,
          1.49438262e-01, -2.59542763e-01, -3.04899514e-01,
          -7.83964917e-02, -1.18537582e-01, -2.42130727e-01,
          -1.10831052e-01, 3.16282064e-02, 2.95870215e-01,
          2.54232764e-01, 1.46894362e-02, -7.18044043e-02,
          -2.41832808e-01, 1.68407142e-01, 2.66612738e-01,
          -2.47911345e-02, 6.39797896e-02, -2.11723611e-01,
          -1.66276619e-01, -6.35287464e-02, 1.85540542e-02,
          -3.69400275e-03, 2.69023418e-01, -2.58612305e-01,
          1.76628321e-01, 9.53542516e-02, -2.26492792e-01,
          2.28315011e-01, 1.62945226e-01, 1.83445185e-01,
          -1.05457440e-01, -1.76348940e-01, 5.93321063e-02,
          1.11660346e-01, 8.39760378e-02, -4.01561499e-01,
          1.13192126e-01, 4.48739938e-02, 5.47423303e-01, 2.37523407e-01,
          1.42579734e-01, 3.06443423e-02, -8.82426393e-04,
          1.98429599e-01, 2.48690948e-01, -8.55189040e-02,
          1.12717934e-01, 3.28279495e-01, -3.50525141e-01,
          -2.52238631e-01, 1.14078689e-02, 3.29004973e-01,
          1.77670404e-01, -7.82266930e-02, 3.14428061e-01,
          9.83741283e-02, -1.32246003e-01, 7.95329884e-02,
          6.27950241e-04, -1.03698641e-01, 5.49575835e-02,
          -9.89798084e-02, 9.43363383e-02, -4.36436355e-01,
          2.13179767e-01, 2.22663730e-01, -2.83138126e-01,
          -2.09183618e-01, -1.45873288e-02, 8.23295936e-02,
          2.18602717e-02, -1.14376821e-01, 2.01821495e-02,
          -1.65005118e-01, -1.32490501e-01, 7.41163194e-02,
          -2.44552538e-01, -8.84719472e-03, -6.36489987e-02,
          -2.52505958e-01, -5.07015921e-02, -1.85176671e-01,
          1.27067760e-01, 1.47395015e-01, 3.86203349e-01, 1.49501994e-01,
          1.82322234e-01, -8.23378786e-02, 5.34514561e-02,
          2.45232910e-01, -1.39419898e-01, 1.12632424e-01,
          6.69447109e-02, 3.17623019e-01, -1.04491100e-01,
          1.03263035e-01, -7.54634067e-02, 2.91688312e-02,
          1.81154683e-01, 1.85435981e-01, -3.36386412e-01,
          2.00122371e-02, -3.68849814e-01, 2.14088529e-01,
          5.08836359e-02, 1.93863705e-01, -2.66754687e-01,
          -1.17123969e-01, 8.00053477e-02, -8.60882029e-02,
          7.46524483e-02, -1.13644153e-01, 2.01662511e-01,
          -5.61696924e-02, -3.09800319e-02, 3.74222726e-01,
          1.80054177e-02, -4.00470614e-01, 8.27928632e-02,
          3.98326591e-02, -1.95045657e-02, 1.95313051e-01,
          -7.19395187e-03, -5.80874784e-03, 6.66766986e-03 ]
      - [ -7.15357512e-02, 1.87306896e-01, -1.73875064e-01,
          -1.27636060e-01, -1.04408816e-01, 2.93132156e-01,
          1.92673549e-01, 3.91281135e-02, -1.21865802e-01,
          8.02628323e-02, 4.38381732e-01, 1.17576972e-01,
          -2.38721762e-02, -1.14728019e-01, -2.29380056e-01,
          5.09077013e-02, -1.08934633e-01, -2.39884723e-02,
          2.54843454e-03, -4.61879671e-02, -1.36173740e-01,
          1.16727725e-01, 8.02104473e-02, -2.33212009e-01,
          -2.14421615e-01, 1.80847034e-01, 1.56042427e-01,
          1.09418370e-01, -2.24329546e-01, 4.25572209e-02,
          -3.83262895e-02, 1.82336450e-01, 1.62344828e-01,
          -2.89467901e-01, 2.77328044e-01, -2.58480549e-01,
          -4.60647568e-02, -1.62017807e-01, 9.60108191e-02,
          -2.99276769e-01, -5.03369093e-01, 8.84064659e-02,
          7.75386691e-02, -1.88766003e-01, 3.40992182e-01,
          -4.94789481e-01, 2.43787199e-01, -5.77599555e-03,
          2.26317048e-01, 5.20792663e-01, -8.41085985e-02,
          -6.42792061e-02, 5.75882308e-02, -1.15297623e-01,
          -8.81679431e-02, 1.26074910e-01, -5.33896610e-02,
          1.83560804e-01, -3.70820284e-01, 9.59246233e-03,
          -1.33937508e-01, 1.61945641e-01, 4.69039917e-01,
          1.00013405e-01, -8.20940211e-02, 1.93554610e-01,
          -2.80322134e-01, 4.92579639e-01, 4.22977149e-01,
          5.22369444e-02, -5.55177173e-03, -1.28501147e-01,
          -1.89763337e-01, 1.45287678e-01, -2.84351222e-03,
          -7.96905532e-02, -2.23099902e-01, -2.81301737e-01,
          2.54145235e-01, -7.45582953e-02, 1.95359439e-01,
          -8.61790478e-02, -7.59026259e-02, 1.58742890e-01,
          3.42320144e-01, 1.55951768e-01, 2.24852800e-01, 2.41355434e-01,
          -4.00311267e-03, -7.97246993e-02, -2.11739734e-01,
          8.36875811e-02, 3.12495202e-01, 1.16444193e-01, 4.30169031e-02,
          4.74457681e-01, -4.93594766e-01, 1.38045385e-01,
          -3.62591594e-01, -1.98850647e-01, -5.31569719e-02,
          -1.08044721e-01, 4.20750648e-01, -2.99026489e-01,
          -1.07301846e-02, -2.80144513e-01, -4.18749750e-02,
          1.00387782e-01, -1.41229540e-01, -9.43332911e-02,
          2.25995317e-01, 1.68260653e-02, -1.46557331e-01,
          4.71456915e-01, -9.75290909e-02, 2.76896477e-01,
          -2.40989309e-02, 1.33945033e-01, 1.30684510e-01,
          3.14697266e-01, -1.72953337e-01, 5.26980078e-03,
          2.31913432e-01, 4.37900573e-01, 1.44240975e-01,
          -1.66604877e-01, -5.86560965e-02, 2.56420616e-02 ]
      - [ -2.79769395e-02, -4.40207601e-01, -1.08959749e-01,
          2.90932208e-02, 5.76322749e-02, 5.89601249e-02,
          -3.71143371e-02, 3.86706263e-01, 4.48130339e-01,
          -3.14724743e-01, -1.41599804e-01, 1.50743812e-01,
          1.77881941e-01, 2.40124047e-01, -3.94868642e-01,
          -3.36839199e-01, 1.75481260e-01, 1.87915415e-01,
          -7.87333995e-02, -2.84759905e-02, 8.89330506e-02,
          -1.34291515e-01, -1.25732586e-01, -1.85380593e-01,
          6.02791905e-02, 3.05724531e-01, 1.59655839e-01,
          -1.45220309e-01, 8.63177851e-02, -2.78050184e-01,
          3.08627725e-01, 1.04300715e-01, 3.24260563e-01,
          -3.55814666e-01, -4.27551985e-01, -2.34640986e-01,
          -2.59529650e-02, -1.54970348e-01, -4.21567261e-01,
          -3.59661013e-01, -1.37847230e-01, 1.81301907e-01,
          6.30504340e-02, -7.71615282e-02, -5.57038449e-02,
          -2.36032560e-01, -2.57417071e-03, -1.67006761e-01,
          7.49272928e-02, -9.60847363e-02, 4.38307077e-01,
          -1.39018983e-01, -4.10024941e-01, -5.36357582e-01,
          5.83214223e-01, 1.88129265e-02, 2.67883599e-01, 7.68860057e-02,
          1.96388885e-02, -9.55643132e-02, -9.58187580e-02,
          1.92462325e-01, 3.78369868e-01, 3.00825030e-01,
          -1.24709345e-01, 1.25086740e-01, -3.74300271e-01,
          1.74823582e-01, -1.35604754e-01, -1.07204624e-01,
          -2.11586915e-02, 2.46746540e-02, -3.87289934e-02,
          -1.82417542e-01, 2.05586225e-01, -4.61708345e-02,
          -4.20578867e-01, -1.28606528e-01, 6.42947927e-02,
          -1.90310031e-01, -3.40933651e-01, 1.84446231e-01,
          9.59384516e-02, -2.35828027e-01, -2.57949024e-01,
          2.18746290e-01, -2.10491851e-01, 2.11490750e-01,
          2.11284250e-01, -5.88278510e-02, 5.12277707e-02,
          -7.04690889e-02, -1.78144440e-01, 1.18487095e-02,
          2.60228179e-02, 6.88180923e-02, -2.55877730e-02,
          9.40938443e-02, 2.24516526e-01, -1.25808403e-01,
          2.66006947e-01, 1.57610402e-01, 3.13956439e-01,
          -2.72547483e-01, 1.91210926e-01, -2.21218154e-01,
          2.72574015e-02, 1.21752929e-03, 5.17968908e-02,
          -7.49255866e-02, -2.44614661e-01, 9.02223513e-02,
          4.14688885e-02, -7.73496106e-02, 1.40040750e-02,
          8.71868432e-02, 6.00284971e-02, 1.36419803e-01, 1.44278467e-01,
          -3.26754421e-01, -8.51119757e-02, 2.79154956e-01,
          7.80444071e-02, 2.21085399e-01, 7.69184902e-02,
          -2.73001969e-01, -3.09265316e-01, -1.91164359e-01 ]
      - [ 3.98211181e-03, 1.13259077e-01, -1.51605234e-01,
          -1.75082341e-01, -3.66499692e-01, 2.24300489e-01,
          -1.98505633e-02, -1.01023680e-02, -2.63327420e-01,
          9.83201638e-02, 4.24802542e-01, 1.23792663e-01, 1.80166095e-01,
          1.75685771e-02, -4.47834074e-01, 8.57064798e-02,
          2.33748451e-01, -2.57247537e-01, -2.62411386e-01,
          -2.12704435e-01, 2.04898114e-03, -8.91101658e-02,
          2.05228612e-01, -1.10377111e-01, -2.73286611e-01,
          -2.73898374e-02, 3.89085487e-02, 1.15436129e-01,
          -1.51645124e-01, 5.52337542e-02, 1.57929316e-01,
          1.62948862e-01, 5.62524199e-01, -2.56741077e-01,
          -7.58271292e-02, 4.98521235e-03, 1.47791579e-01,
          1.17553510e-01, -7.82907456e-02, 1.07348993e-01,
          -5.01524992e-02, 1.24494255e-01, 5.62772602e-02,
          4.89036068e-02, -8.06724802e-02, -1.65945366e-01,
          2.32113272e-01, -1.25504062e-01, -7.12680444e-03,
          -1.27022326e-01, 1.89688563e-01, -4.35926557e-01,
          -1.16921276e-01, -1.81959823e-01, 2.03336328e-01,
          4.54490006e-01, -2.46239498e-01, 4.21220474e-02,
          2.24367768e-01, -4.43590105e-01, -1.12124845e-01,
          7.09492713e-02, 5.87581880e-02, -6.49510399e-02,
          -7.13662282e-02, -5.98237850e-02, -4.07089591e-01,
          4.67306286e-01, -7.48725384e-02, 1.79133250e-03,
          -3.38028014e-01, 4.87466186e-01, 2.14949980e-01,
          -2.57055342e-01, 8.11249092e-02, 2.66393006e-01,
          -2.88609024e-02, 7.79945850e-02, 1.00793183e-01,
          -2.81403720e-01, -1.20702051e-01, -7.78919235e-02,
          -4.53588903e-01, 6.88219741e-02, 5.53867333e-02,
          8.65232795e-02, -4.26974855e-02, -3.35598625e-02,
          5.53519726e-02, 3.62535417e-02, 1.89039096e-01,
          -8.81983340e-02, 2.32056901e-01, -9.09853503e-02,
          2.18705967e-01, 1.94147140e-01, 2.88523912e-01, 4.47338484e-02,
          -1.39442444e-01, -3.93158466e-01, 8.49553272e-02,
          -3.33195999e-02, 1.54888958e-01, -2.22263485e-01,
          -2.19869446e-02, -1.71249658e-01, 1.20776638e-01,
          -1.49724875e-02, 7.17112124e-02, 1.69345766e-01,
          1.28684208e-01, 2.05894828e-01, -3.74280140e-02,
          3.15386117e-01, -2.91510969e-01, 2.67419308e-01,
          -8.16166922e-02, -2.22644195e-01, -2.32768543e-02,
          2.66215783e-02, -2.66750395e-01, 7.64683471e-04,
          2.63349354e-01, 2.10948855e-01, 2.14901000e-01,
          -2.72570491e-01, 1.07778693e-02, 2.05979235e-02 ]
      - [ 6.45241439e-02, -2.04682797e-01, 7.29733631e-02,
          1.30075395e-01, 2.30268434e-01, -3.73614691e-02,
          -5.71697652e-01, 1.17501579e-01, 8.42958763e-02,
          -2.76749402e-01, -2.85678536e-01, -1.60184279e-01,
          1.55185506e-01, 6.66622072e-04, -2.23734707e-01,
          -3.04174215e-01, -9.29374769e-02, 1.40361920e-01,
          5.34537315e-01, 4.37858999e-01, 1.65423363e-01, 1.34147182e-01,
          -2.05914423e-01, 5.33939958e-01, -2.48572201e-01,
          3.26304793e-01, -2.54889250e-01, 7.99994543e-02,
          1.21286646e-01, -2.86589507e-02, 6.73961863e-02,
          2.19943635e-02, -1.96267083e-01, 2.08958298e-01,
          -9.28985327e-02, 1.38661250e-01, 1.82919174e-01,
          -3.26382279e-01, -3.60440984e-02, 4.89413440e-01,
          2.92151541e-01, 3.57700706e-01, 2.99886823e-01, 2.70658731e-01,
          -2.65808791e-01, 9.62702110e-02, 2.57207543e-01,
          2.32145548e-01, 3.61319142e-03, -2.28797942e-01,
          6.10527806e-02, -6.38815835e-02, -7.28202909e-02,
          5.97521625e-02, 2.76255421e-02, -9.06435549e-02,
          4.00737017e-01, 7.66672269e-02, -1.69686750e-01,
          4.14009124e-01, 1.09856188e-01, -1.34208560e-01,
          1.07066929e-01, 2.33441710e-01, -4.30569470e-01,
          5.91009371e-02, 2.34046593e-01, 2.07765862e-01, 1.89336836e-01,
          -1.98338702e-01, 4.81426157e-03, -2.37783641e-02,
          -1.96473226e-01, 1.83068603e-01, -1.13249429e-01,
          1.51975706e-01, 3.26666050e-02, 3.33621144e-01,
          -2.24585295e-01, -6.04230091e-02, -2.37319842e-01,
          -5.13589919e-01, 3.18947554e-01, -6.64541945e-02,
          -2.44061008e-01, -2.76064202e-02, 1.92430504e-02,
          2.82598794e-01, 1.34552255e-01, -3.67812753e-01,
          2.25411519e-01, -3.25418785e-02, -2.99130499e-01,
          -5.27772605e-02, 2.57456571e-01, -2.55142987e-01,
          -9.24939588e-02, -6.31240249e-01, 3.18079107e-02,
          -1.56013845e-02, 2.31391460e-01, 3.94399107e-01,
          -9.59844962e-02, -2.07211748e-01, -1.55073002e-01,
          -4.24044758e-01, 1.21859899e-02, -4.98935163e-01,
          -9.12788659e-02, -4.78230566e-01, 1.99523810e-02,
          -3.68021220e-01, -4.53886576e-02, 1.18278801e-01,
          -8.92160758e-02, -3.53199206e-02, -2.69580930e-02,
          1.64339915e-01, 3.30014616e-01, 1.84559882e-01,
          -5.28549314e-01, 2.01959521e-01, 3.05518433e-02,
          -4.70083922e-01, 2.69115925e-01, -2.68700451e-01,
          3.14996511e-01, 1.12465829e-01 ]
      - [ 3.95908467e-02, 1.15824066e-01, -4.63725664e-02,
          -1.68928251e-01, -2.83919364e-01, 1.18240923e-01,
          -1.33159176e-01, 1.69436634e-01, -3.24958190e-02,
          -1.13944255e-01, 3.70402902e-01, 3.69199157e-01,
          5.50253987e-01, -6.39154762e-02, -3.49084109e-01,
          3.41005176e-02, 4.57698517e-02, 2.79613435e-01, 1.11414559e-01,
          2.35749722e-01, -1.35758027e-01, 9.44153219e-02,
          -3.84614021e-01, -1.15167372e-01, -1.13475151e-01,
          4.25643116e-01, -1.75143406e-01, 2.95899898e-01,
          -1.76754326e-01, -9.75445509e-02, 2.75395334e-01,
          1.91874921e-01, 1.71561599e-01, -4.16733146e-01,
          -1.78803876e-01, 5.81988208e-02, 9.88725051e-02,
          -8.54731500e-02, -3.22013527e-01, 4.47408594e-02,
          1.39401093e-01, 5.97525239e-01, 4.56897616e-01, 5.07958233e-04,
          1.96957871e-01, -2.85338223e-01, 4.09439594e-01,
          -2.20993590e-02, 1.81227684e-01, 1.85615629e-01,
          7.81270862e-02, -2.56464392e-01, -1.45524815e-01,
          -1.63664501e-02, 8.13846439e-02, 2.61233877e-02,
          -2.17262795e-03, 1.26783192e-01, 2.08625495e-01,
          7.91826248e-02, 3.62230450e-01, 3.26852202e-01, 3.70839626e-01,
          2.92979956e-01, 6.94760010e-02, -6.89029247e-02,
          -2.78418392e-01, 1.46990031e-01, 2.21647859e-01,
          1.43570136e-02, -1.35062188e-01, 2.40154535e-01,
          -6.13601841e-02, 1.42898455e-01, 5.02271531e-03,
          -1.89117268e-01, -2.39309028e-01, -2.33323313e-02,
          4.06022549e-01, -7.65157118e-02, 6.76384941e-02,
          -3.82156789e-01, -7.67248496e-02, -1.66208725e-02,
          -1.70338303e-02, 1.38335958e-01, 1.07229643e-01,
          2.88071275e-01, 1.59191757e-01, -6.88916668e-02,
          -1.45342007e-01, 4.02713679e-02, 9.07908604e-02,
          -1.00575335e-01, 1.82286546e-01, 2.14731947e-01,
          -4.17070091e-02, -1.59537628e-01, 7.02391118e-02,
          -2.09541500e-01, 2.85547942e-01, 3.10265422e-01,
          2.69729555e-01, -4.94859219e-01, -5.11233509e-02,
          -6.73824549e-02, -1.75198808e-01, 1.76067919e-01,
          -6.15606643e-02, -7.46716857e-02, 1.65945172e-01,
          9.31113958e-03, -8.82949382e-02, 4.71947521e-01,
          -1.77577183e-01, 3.00012380e-01, -1.30291000e-01,
          -1.01759382e-01, 1.87999770e-01, 4.65435684e-02,
          -3.20133448e-01, 1.13829441e-01, 1.51450112e-01,
          1.69378117e-01, 2.16259152e-01, -3.46290708e-01,
          9.88005549e-02, -2.97674060e-01 ]
      - [ -2.66296268e-01, -4.32408378e-02, 6.85408488e-02,
          2.52497017e-01, -2.42580071e-01, 3.22359890e-01,
          -1.05240993e-01, 1.36046469e-01, 1.26275986e-01,
          3.09837639e-01, -1.88621670e-01, -7.22982734e-02,
          -1.53622348e-02, 2.24137425e-01, -2.43815154e-01,
          -1.67825684e-01, -9.28778276e-02, 3.92738031e-03,
          -2.19116032e-01, 1.75610170e-01, -8.68129805e-02,
          -1.10619431e-02, -3.43248621e-02, -1.03579707e-01,
          -3.51619050e-02, 6.27987906e-02, 1.79854259e-01,
          2.07315385e-01, -3.14751178e-01, -1.01307370e-01,
          -8.90918970e-02, 7.06431195e-02, -6.47952706e-02,
          -1.97698191e-01, -8.84931162e-02, 1.24056898e-01,
          -2.87713230e-01, -1.70971200e-01, 9.78771076e-02,
          -2.70620406e-01, 4.10258584e-02, -7.16663003e-02,
          -1.63871080e-01, 1.44305125e-01, 5.98088801e-01,
          7.65736178e-02, 1.05365969e-01, 2.87423134e-02,
          -2.05733478e-01, 3.58976126e-02, 1.42626930e-02,
          -5.13337404e-02, -2.53367633e-01, -9.04069468e-03,
          -1.98332202e-02, -1.35424046e-03, -3.43732595e-01,
          -2.44330421e-01, 4.12470102e-02, 1.80523228e-02,
          4.47682142e-01, 3.22087497e-01, 1.62360534e-01,
          -2.16331765e-01, -1.02399759e-01, -7.67715797e-02,
          -5.43313444e-01, 2.06699576e-02, 1.08326480e-01,
          -2.47078925e-01, -4.63904351e-01, 1.07813947e-01,
          2.61500388e-01, -1.35288715e-01, 9.13068503e-02,
          -6.36312738e-02, -1.08570851e-01, -1.42843008e-01,
          6.22011721e-01, 3.42775822e-01, 8.12183470e-02,
          -2.06220850e-01, 1.83171090e-02, 3.08010846e-01,
          -1.53375149e-01, -6.65467232e-02, 4.00537312e-01,
          1.46361843e-01, 2.50259876e-01, -1.58725694e-01,
          -1.59248114e-01, 1.91315770e-01, -5.40907383e-02,
          2.17137650e-01, 2.75878996e-01, -4.74799238e-02,
          2.00483605e-01, 2.10762341e-02, -6.63990602e-02,
          1.92233816e-01, 2.23069891e-01, 3.51596624e-01,
          -2.73926854e-01, 2.58476231e-02, 1.51308089e-01,
          -2.66818166e-01, -7.13101327e-02, 2.58073881e-02,
          -9.46877152e-02, -3.46033350e-02, 3.65796894e-01,
          -3.84730846e-01, -9.82420519e-02, 1.40580744e-01,
          -3.27726215e-01, 4.69037354e-01, -1.61738947e-01,
          3.33691984e-01, -2.28409961e-01, -7.27619678e-02,
          -2.48066053e-01, 3.66089791e-01, -1.41333520e-01,
          2.87547469e-01, -1.61431715e-01, -4.90658656e-02,
          9.15755257e-02, -9.19638798e-02 ]
      - [ -1.27526671e-01, -3.47264439e-01, -2.60195676e-02,
          3.41854304e-01, -1.85279563e-01, 1.01841219e-01,
          3.84642750e-01, 8.33441541e-02, 1.39833793e-01,
          -2.01062173e-01, 8.97490978e-02, -3.29487354e-01,
          1.41362861e-01, -4.30360615e-01, -4.36431825e-01,
          -2.83967346e-01, 8.37231353e-02, 7.20070451e-02,
          5.21721840e-02, 7.34737664e-02, 7.93927014e-02, 1.63429275e-01,
          6.90875202e-02, -1.22346334e-01, -5.37051521e-02,
          6.53529465e-02, 3.65116656e-01, 2.45702550e-01,
          -2.01945916e-01, 5.09411208e-02, -1.23929486e-01,
          1.73065394e-01, 2.24606812e-01, -8.26566592e-02,
          -1.84848875e-01, -1.24001443e-01, 7.05823451e-02,
          -1.15900218e-01, -2.43988149e-02, -3.66983637e-02,
          -5.04630916e-02, 1.53732738e-02, -2.13781595e-01,
          -1.45944521e-01, 2.35526085e-01, 2.12741002e-01,
          3.75273287e-01, -2.92780638e-01, 9.93819088e-02,
          -8.73841718e-02, -6.25584200e-02, 1.16836224e-02,
          -7.74318799e-02, -3.99290890e-01, 4.72445637e-02,
          3.86393011e-01, -1.80083573e-01, 5.11393607e-01,
          -9.23808739e-02, -2.15222746e-01, -5.91449477e-02,
          -1.22821443e-01, 1.14985012e-01, -9.64161605e-02,
          -7.01411441e-02, 2.37874731e-01, 8.53412896e-02,
          1.91374213e-01, 8.49716961e-02, -4.39366907e-01,
          6.47244528e-02, -2.79677093e-01, 3.10767621e-01,
          -3.39556605e-01, -9.03544724e-02, 1.27759844e-01,
          -2.48968199e-01, 2.06783503e-01, 6.04142696e-02,
          2.57304192e-01, -6.57406226e-02, -7.22291544e-02,
          2.35941932e-01, -5.90103343e-02, -2.12548688e-01,
          3.09258044e-01, 1.71308219e-01, 2.52689898e-01, 1.31406888e-01,
          1.65258393e-01, 1.59325421e-01, 1.13196842e-01,
          -2.47017622e-01, 2.75005430e-01, 3.45778987e-02,
          -4.66147847e-02, -2.53912151e-01, -3.64372492e-01,
          -1.46998644e-01, 2.90673494e-01, 1.48181006e-01,
          3.28710198e-01, 4.52664703e-01, -1.79047659e-01,
          -1.76663727e-01, -8.46785381e-02, 2.03459412e-01,
          -9.09071937e-02, -1.01056643e-01, -2.75464445e-01,
          -8.10011029e-02, -1.14131812e-02, -4.67341058e-02,
          2.60264695e-01, 6.34747818e-02, 1.92404881e-01,
          -2.10450947e-01, 1.41688317e-01, 2.10973918e-01,
          4.62019108e-02, -3.17459106e-01, 2.97622472e-01,
          -1.71352327e-01, 2.06129253e-01, -9.08239558e-02,
          8.80714282e-02, 1.62003696e-01, 2.38767881e-02 ]
      - [ 5.44901267e-02, -1.00148320e-02, 1.09385699e-01,
          -1.47867262e-01, 3.35292697e-01, 5.14170155e-02,
          6.98534697e-02, -8.00830275e-02, 1.21458419e-01,
          -2.19240248e-01, 9.66065452e-02, 1.31986380e-01,
          7.14669153e-02, -2.73406021e-02, -1.10586964e-01,
          1.03588961e-01, 3.59078832e-02, 1.01329222e-01, 4.45216089e-01,
          1.26517326e-01, -2.32657686e-01, 2.88320959e-01,
          -1.31713822e-01, 3.12909454e-01, -4.01900411e-01,
          7.40477890e-02, 2.37116784e-01, -1.25721589e-01,
          -1.64890558e-01, 4.00179699e-02, 3.61147732e-01,
          1.26765091e-02, 2.93361000e-03, -3.98936383e-02,
          -3.10424060e-01, -3.26568097e-01, 4.02840674e-01,
          -3.09560120e-01, 1.51994497e-01, 1.18906088e-01,
          -1.24618024e-01, -2.70388991e-01, 3.22653085e-01,
          1.38142616e-01, 3.07860941e-01, 1.13686442e-01,
          -1.17543884e-01, -2.63305902e-01, 2.71691829e-01,
          2.31056780e-01, -9.63131711e-02, -4.45380360e-01,
          -1.60420984e-01, -2.18053609e-02, -1.41804954e-02,
          -2.87523061e-01, 1.60728455e-01, 2.79905021e-01,
          -2.13732630e-01, -1.48298174e-01, -8.02603737e-02,
          1.36395082e-01, 2.43180975e-01, 1.64537162e-01,
          -5.22429466e-01, 3.20244074e-01, 1.23378135e-01,
          -2.95659184e-01, -2.01088965e-01, -3.48648466e-02,
          6.24235645e-02, -6.58301935e-02, 2.54001319e-01,
          3.59070182e-01, -2.88074911e-01, -8.10350999e-02,
          -1.86181396e-01, 1.38496056e-01, 1.63344204e-01,
          2.26614073e-01, -4.51823086e-01, 2.02133402e-01,
          1.42804742e-01, -1.51464269e-01, -2.06780672e-01,
          1.01986751e-01, 4.54956666e-02, 2.92319030e-01, 9.08913389e-02,
          -2.01929718e-01, 6.66754469e-02, 6.86450675e-03,
          -2.75895238e-01, -7.22112507e-02, 4.32424575e-01,
          -4.42340970e-01, -2.23617971e-01, 9.01319087e-03,
          -1.73179165e-01, -2.78923631e-01, 6.69004321e-02,
          -1.22508995e-01, 2.62312442e-01, -5.67670446e-03,
          -8.30122642e-03, -1.27704218e-01, 1.52114734e-01,
          8.62839073e-02, -1.50997922e-01, -2.95685798e-01,
          6.16635308e-02, -3.46429944e-01, 2.67120957e-01,
          1.80155039e-01, -2.57216990e-01, 1.14237882e-01,
          3.16731244e-01, 4.53603566e-02, -1.14262000e-01,
          4.71245386e-02, -5.38679779e-01, 3.44742268e-01,
          2.80069679e-01, -1.53191283e-01, -3.09355333e-02,
          -1.09231420e-01, -3.26352902e-02, -3.27344835e-01 ]
      - [ 3.83083001e-02, 3.56064409e-01, 5.59655167e-02, 1.18067302e-02,
          4.15257998e-02, 1.69866100e-01, 1.90468475e-01,
          -2.48022377e-03, 2.36729160e-01, -1.03558160e-01,
          2.58163929e-01, 5.13390973e-02, -1.71343014e-01,
          -3.02858442e-01, -7.71384537e-02, -1.54369906e-01,
          -1.73072100e-01, 1.83039472e-01, -2.05222636e-01,
          -7.44764283e-02, 1.27968013e-01, -1.09866701e-01,
          -2.28329767e-02, -1.06339283e-01, 1.10147499e-01,
          3.25680375e-01, -6.14743270e-02, 3.05767745e-01,
          -2.06986114e-01, 1.11905513e-02, -2.83616036e-01,
          1.65530533e-01, -4.17966306e-01, 6.37237132e-02,
          -6.61484003e-02, -1.39729947e-01, -1.77167997e-01,
          -1.57346070e-01, -2.45170161e-01, -3.27102631e-01,
          -1.64143294e-01, 3.71682346e-02, -5.84336296e-02,
          4.63450179e-02, -1.49219662e-01, -3.62384282e-02,
          4.06243861e-01, -2.77740359e-01, -8.76924694e-02,
          9.09585282e-02, 3.09929997e-01, -2.03976348e-01,
          7.01079145e-02, -1.73993036e-01, 2.89159328e-01,
          -1.45950064e-01, -4.25786488e-02, -5.69148920e-03,
          2.70240217e-01, -1.56559460e-02, -3.66593450e-02,
          -2.58160196e-02, 5.54995418e-01, -4.28259857e-02,
          2.00411096e-01, -5.97977191e-02, -5.53893030e-01,
          1.64942980e-01, 2.27356598e-01, -8.18144828e-02,
          -1.46818757e-01, -3.18674624e-01, -7.07528591e-02,
          -1.16642140e-01, -9.96844321e-02, 2.88086563e-01,
          -1.99703857e-01, 2.93525904e-01, 1.89172581e-01,
          -5.64670842e-03, 1.25624552e-01, -1.89058423e-01,
          -1.92246780e-01, -1.63121559e-02, -2.00186551e-01,
          2.26218060e-01, 2.35960126e-01, 1.52385175e-01, 6.44141957e-02,
          5.81860095e-02, 2.85804123e-01, -2.09519014e-01,
          5.29682152e-02, -1.84496686e-01, 1.24207519e-01,
          1.92648306e-01, -5.59148900e-02, -3.69686067e-01,
          1.52423471e-01, 8.88431147e-02, -2.07719564e-01,
          1.20577417e-01, 2.05464154e-01, -1.18293934e-01,
          -7.75554329e-02, -1.98029727e-01, -2.72883475e-01,
          2.04445988e-01, -4.93927859e-02, 3.14766876e-02,
          1.18451729e-01, -2.41086766e-01, -1.73311666e-01,
          3.03117067e-01, 1.82810634e-01, 2.53159642e-01,
          -2.70854890e-01, 2.65714191e-02, 3.34949672e-01,
          1.12567745e-01, -2.67823637e-01, 7.09721670e-02,
          -5.22939190e-02, 1.78506762e-01, -1.05529256e-01,
          -1.17391370e-01, 1.03241831e-01, -2.04186320e-01 ]
      - [ 1.75258070e-01, -1.00015253e-02, -1.90321133e-01,
          7.75415227e-02, -5.48932329e-02, -8.36757720e-02,
          -1.34307817e-01, 6.79728910e-02, 2.31537297e-02,
          5.20275712e-01, -8.67176801e-02, 5.14032654e-02,
          5.43107577e-02, -6.38924167e-02, -4.80787009e-01,
          -2.40540087e-01, 7.28993770e-03, -6.92959353e-02,
          8.14509168e-02, 2.14683458e-01, 1.14524841e-01, 5.78097031e-02,
          -3.40313166e-01, 4.09843951e-01, -2.64391243e-01,
          3.56986709e-02, 3.51700969e-02, -1.85141210e-02,
          1.40641719e-01, 6.31076396e-02, 1.02232032e-01, 8.50661770e-02,
          -1.08969189e-01, -3.69163394e-01, -2.97446549e-01,
          -1.81365564e-01, -6.95039853e-02, -1.00160807e-01,
          -1.43286958e-01, -1.10826485e-01, 1.23918511e-01,
          -1.03833610e-02, 1.02886677e-01, 3.60764891e-01,
          -1.81031913e-01, -3.66781920e-01, 1.48671523e-01,
          1.11386932e-01, -1.53155565e-01, -6.90331832e-02,
          1.82527810e-01, 8.56159329e-02, -4.05550003e-01,
          -1.62567705e-01, -4.83722873e-02, 1.48842260e-01,
          9.05646831e-02, 8.88165273e-03, -2.25275293e-01,
          -1.11309793e-02, -2.12039188e-01, -1.35583892e-01,
          3.59384000e-01, 1.35722309e-01, -9.76850614e-02,
          1.21731840e-01, -2.61134923e-01, 1.75993472e-01,
          1.81491189e-02, -3.29942346e-01, -2.02881411e-01,
          -1.00557901e-01, 2.99798816e-01, 1.13376461e-01,
          1.71987742e-01, -1.46485880e-01, -1.81583136e-01,
          3.48788463e-02, -4.71565202e-02, -1.98192269e-01,
          -1.34772444e-02, -1.57021314e-01, 5.77162094e-02,
          -1.22843059e-02, -3.25514436e-01, 2.15154260e-01,
          -2.88715422e-01, 1.76849812e-01, 2.48975798e-01,
          -1.12657323e-02, 1.03831418e-01, -8.32165256e-02,
          2.09912255e-01, 1.53100356e-01, 3.49740505e-01,
          -7.60371536e-02, 1.84928343e-01, -2.75016397e-01,
          1.10121302e-01, -2.55105883e-01, -1.10017024e-01,
          5.28507710e-01, 2.61970192e-01, -3.11725855e-01,
          -6.78514242e-02, -6.22252822e-01, 2.55428910e-01,
          7.61978999e-02, 1.46121442e-01, -2.50457257e-01,
          6.54665381e-02, -9.12949629e-03, 1.61651418e-01,
          2.50702351e-01, -1.96749941e-01, 1.46291107e-02,
          1.49199978e-01, 2.76441574e-01, 1.52601302e-02, 1.78022698e-01,
          -4.09522563e-01, 1.83008835e-01, -1.80075329e-03,
          -6.40461892e-02, -1.59202397e-01, 1.10281847e-01,
          -6.12617694e-02, -1.43766299e-01 ]
      - [ -7.82355890e-02, 1.60416409e-01, 1.88009199e-02,
          -2.14351490e-01, -1.90923393e-01, 5.67541644e-02,
          3.34339589e-02, 1.54291496e-01, 2.90496051e-01,
          -3.49460304e-01, -1.56112304e-02, 2.57748872e-01,
          1.72845334e-01, -3.66390854e-01, -1.41164631e-01,
          -2.76409481e-02, 2.69657731e-01, 4.56391364e-01,
          1.89818278e-01, 4.64595169e-01, 7.11238012e-02, 1.63544312e-01,
          -1.92826226e-01, 1.02388181e-01, -1.78839877e-01,
          -4.89520133e-02, 1.06720343e-01, -1.15971223e-01,
          1.09626306e-02, -1.35659799e-01, -1.21740520e-01,
          -1.67967960e-01, -1.23489365e-01, -1.02830090e-01,
          -1.81294546e-01, -5.77414893e-02, 1.54154683e-02,
          -2.19484091e-01, -2.86660403e-01, -1.82602108e-01,
          -1.08387880e-01, 4.32847850e-02, -2.27420002e-01,
          6.70903027e-02, 2.40958914e-01, -4.03397046e-02,
          3.24372262e-01, -6.14403114e-02, 9.14115012e-02,
          2.43612751e-01, -1.73586220e-01, 1.46361053e-01,
          9.38091055e-02, 2.17307389e-01, -1.26152590e-01,
          -5.92475757e-02, -2.32595474e-01, 1.65740341e-01,
          -3.26248258e-01, 1.99177265e-01, 1.43330008e-01,
          1.74586222e-01, 2.39529312e-01, 3.92900378e-01, 3.25679839e-01,
          2.33669713e-01, 2.18374327e-01, -1.01823688e-01,
          2.88800240e-01, -2.69789815e-01, -7.47476667e-02,
          -3.64098884e-03, 3.19839688e-03, -2.66578406e-01,
          1.17181189e-01, -4.47593182e-01, -3.96053195e-01,
          -2.42135525e-01, 2.16463357e-01, -1.27090007e-01,
          -2.64714003e-01, -1.18784256e-01, 2.96067923e-01,
          -1.23551697e-01, -2.79452931e-02, 5.04431665e-01,
          8.46913829e-02, 4.57854904e-02, 1.00869156e-01,
          -1.02916651e-03, -4.58511002e-02, 9.80436653e-02,
          -1.41232610e-01, -6.99272826e-02, 1.94974840e-01,
          -1.24965957e-03, -1.48760043e-02, -4.87357527e-01,
          2.48271286e-01, 3.78039718e-01, 3.49539340e-01, 9.68578517e-01,
          4.42529649e-01, 3.06320101e-01, -1.28680974e-01,
          1.68928191e-01, -3.28691632e-01, 2.42423415e-01,
          -1.57132179e-01, -5.37733257e-01, -1.94052860e-01,
          -1.83420274e-02, -1.22421701e-02, 1.95959210e-01,
          -3.13189000e-01, 1.33220121e-01, -3.18999410e-01,
          3.84449512e-01, 1.13642909e-01, -1.58837333e-01,
          -3.23286653e-01, 3.72979671e-01, 2.68612616e-03,
          -3.66716355e-01, -2.27101296e-01, -4.76951338e-02,
          6.15856759e-02, -2.24948570e-01 ]
      - [ -5.55608422e-02, -8.55924636e-02, 1.34820148e-01,
          4.51648720e-02, -1.25755802e-01, 2.04401821e-01,
          3.12423706e-01, -2.92486727e-01, -2.94447333e-01,
          2.62375623e-02, 6.76468760e-02, -4.88277003e-02,
          -5.42209558e-02, -5.71487509e-02, -3.17188501e-01,
          -2.57591397e-01, 5.15989996e-02, 3.36936340e-02,
          8.54915287e-03, 7.05562010e-02, -3.55527788e-01,
          1.12178847e-01, 2.95467414e-02, -2.45358169e-01,
          -3.26335013e-01, -6.60171136e-02, 2.28459120e-01,
          7.48960651e-04, -7.94008598e-02, 1.47886634e-01,
          4.05398548e-01, -9.59499925e-03, 1.46092445e-01,
          -1.95309490e-01, -3.52109641e-01, -2.13070512e-02,
          3.12295705e-02, -4.89285886e-02, -1.08080015e-01,
          -1.45521447e-01, 4.29640152e-02, -1.45484686e-01,
          -2.65756994e-02, 2.01564193e-01, 5.01677215e-01,
          -1.58717349e-01, 1.43859059e-01, 5.75472675e-02,
          -2.70701557e-01, 9.86107625e-04, 6.32754639e-02,
          -3.65827292e-01, -1.08470194e-01, 2.14693561e-01,
          -2.48895094e-01, -7.65186250e-02, -2.87688822e-01,
          2.73582399e-01, -3.54947537e-01, -5.91717541e-01,
          -3.12281605e-02, -7.41326511e-02, 2.40669940e-02,
          -3.66168208e-02, -4.28179145e-01, 2.97561139e-01,
          -1.44147456e-01, 1.87071525e-02, -5.33067100e-02,
          -1.26904309e-01, -2.68975049e-01, -1.65529437e-02,
          3.28695059e-01, -8.93803909e-02, -2.67877877e-01,
          2.80726373e-01, -1.42961487e-01, -8.12899414e-03,
          3.88675123e-01, 2.80062109e-01, -2.19007134e-01,
          3.39782655e-01, -9.62209627e-02, 6.69823810e-02,
          -6.85240030e-02, 1.42565057e-01, 4.20963526e-01,
          2.51065403e-01, 3.17262471e-01, 1.67584136e-01,
          -1.81619927e-01, 2.82180938e-03, 8.40134174e-02,
          2.69723594e-01, 2.85731792e-01, -2.45301321e-01,
          2.63509415e-02, -9.93828699e-02, 1.02182992e-01,
          -8.27856138e-02, 1.62849486e-01, 2.62114823e-01,
          2.93537766e-01, 3.49638015e-02, 2.31073331e-02, 1.03459075e-01,
          4.43674400e-02, 2.65123427e-01, 1.20383203e-01,
          -2.97099143e-01, -1.06883690e-01, 4.98302393e-02,
          -7.69361183e-02, 1.50720358e-01, -3.47426802e-01,
          4.84524965e-01, -2.14642242e-01, -1.34758636e-01,
          -3.19961518e-01, -2.14619771e-01, -4.67154235e-01,
          5.23408175e-01, 2.72327699e-02, 1.68732315e-01, 1.41299725e-01,
          1.62198115e-02, -7.28232712e-02, -9.24714953e-02 ]
      - [ 6.31541992e-03, 4.03045528e-02, -1.60742346e-02,
          2.08517671e-01, 3.41818184e-02, -2.99262609e-02,
          6.04325309e-02, -3.19208801e-01, -1.97715387e-01,
          3.11937124e-01, -2.80709565e-02, 1.28002213e-02,
          -1.79728419e-01, 7.96983019e-02, -1.75113678e-02,
          -3.60245138e-01, -3.57740998e-01, -1.32267192e-01,
          2.21814513e-01, -1.33660525e-01, 1.41659856e-01,
          -1.53837562e-01, -5.59582561e-02, 9.04764086e-02,
          1.23704612e-01, -7.16307946e-03, -1.00694366e-01,
          -1.06949046e-01, 1.08400315e-01, -1.49172336e-01,
          3.05393398e-01, 1.21622965e-01, 4.34412993e-02, 8.56588855e-02,
          -1.56704143e-01, -6.78879023e-02, -4.51511107e-02,
